{"learner":{"attributes":{},"feature_names":[],"feature_types":[],"gradient_booster":{"model":{"gbtree_model_param":{"num_parallel_tree":"1","num_trees":"600"},"iteration_indptr":[0,1,2,3,4,5,6,7,8,9,10,11,12,13,14,15,16,17,18,19,20,21,22,23,24,25,26,27,28,29,30,31,32,33,34,35,36,37,38,39,40,41,42,43,44,45,46,47,48,49,50,51,52,53,54,55,56,57,58,59,60,61,62,63,64,65,66,67,68,69,70,71,72,73,74,75,76,77,78,79,80,81,82,83,84,85,86,87,88,89,90,91,92,93,94,95,96,97,98,99,100,101,102,103,104,105,106,107,108,109,110,111,112,113,114,115,116,117,118,119,120,121,122,123,124,125,126,127,128,129,130,131,132,133,134,135,136,137,138,139,140,141,142,143,144,145,146,147,148,149,150,151,152,153,154,155,156,157,158,159,160,161,162,163,164,165,166,167,168,169,170,171,172,173,174,175,176,177,178,179,180,181,182,183,184,185,186,187,188,189,190,191,192,193,194,195,196,197,198,199,200,201,202,203,204,205,206,207,208,209,210,211,212,213,214,215,216,217,218,219,220,221,222,223,224,225,226,227,228,229,230,231,232,233,234,235,236,237,238,239,240,241,242,243,244,245,246,247,248,249,250,251,252,253,254,255,256,257,258,259,260,261,262,263,264,265,266,267,268,269,270,271,272,273,274,275,276,277,278,279,280,281,282,283,284,285,286,287,288,289,290,291,292,293,294,295,296,297,298,299,300,301,302,303,304,305,306,307,308,309,310,311,312,313,314,315,316,317,318,319,320,321,322,323,324,325,326,327,328,329,330,331,332,333,334,335,336,337,338,339,340,341,342,343,344,345,346,347,348,349,350,351,352,353,354,355,356,357,358,359,360,361,362,363,364,365,366,367,368,369,370,371,372,373,374,375,376,377,378,379,380,381,382,383,384,385,386,387,388,389,390,391,392,393,394,395,396,397,398,399,400,401,402,403,404,405,406,407,408,409,410,411,412,413,414,415,416,417,418,419,420,421,422,423,424,425,426,427,428,429,430,431,432,433,434,435,436,437,438,439,440,441,442,443,444,445,446,447,448,449,450,451,452,453,454,455,456,457,458,459,460,461,462,463,464,465,466,467,468,469,470,471,472,473,474,475,476,477,478,479,480,481,482,483,484,485,486,487,488,489,490,491,492,493,494,495,496,497,498,499,500,501,502,503,504,505,506,507,508,509,510,511,512,513,514,515,516,517,518,519,520,521,522,523,524,525,526,527,528,529,530,531,532,533,534,535,536,537,538,539,540,541,542,543,544,545,546,547,548,549,550,551,552,553,554,555,556,557,558,559,560,561,562,563,564,565,566,567,568,569,570,571,572,573,574,575,576,577,578,579,580,581,582,583,584,585,586,587,588,589,590,591,592,593,594,595,596,597,598,599,600],"tree_info":[0,0,0,0,0,0,0,0,0,0,0,0,0,0,0,0,0,0,0,0,0,0,0,0,0,0,0,0,0,0,0,0,0,0,0,0,0,0,0,0,0,0,0,0,0,0,0,0,0,0,0,0,0,0,0,0,0,0,0,0,0,0,0,0,0,0,0,0,0,0,0,0,0,0,0,0,0,0,0,0,0,0,0,0,0,0,0,0,0,0,0,0,0,0,0,0,0,0,0,0,0,0,0,0,0,0,0,0,0,0,0,0,0,0,0,0,0,0,0,0,0,0,0,0,0,0,0,0,0,0,0,0,0,0,0,0,0,0,0,0,0,0,0,0,0,0,0,0,0,0,0,0,0,0,0,0,0,0,0,0,0,0,0,0,0,0,0,0,0,0,0,0,0,0,0,0,0,0,0,0,0,0,0,0,0,0,0,0,0,0,0,0,0,0,0,0,0,0,0,0,0,0,0,0,0,0,0,0,0,0,0,0,0,0,0,0,0,0,0,0,0,0,0,0,0,0,0,0,0,0,0,0,0,0,0,0,0,0,0,0,0,0,0,0,0,0,0,0,0,0,0,0,0,0,0,0,0,0,0,0,0,0,0,0,0,0,0,0,0,0,0,0,0,0,0,0,0,0,0,0,0,0,0,0,0,0,0,0,0,0,0,0,0,0,0,0,0,0,0,0,0,0,0,0,0,0,0,0,0,0,0,0,0,0,0,0,0,0,0,0,0,0,0,0,0,0,0,0,0,0,0,0,0,0,0,0,0,0,0,0,0,0,0,0,0,0,0,0,0,0,0,0,0,0,0,0,0,0,0,0,0,0,0,0,0,0,0,0,0,0,0,0,0,0,0,0,0,0,0,0,0,0,0,0,0,0,0,0,0,0,0,0,0,0,0,0,0,0,0,0,0,0,0,0,0,0,0,0,0,0,0,0,0,0,0,0,0,0,0,0,0,0,0,0,0,0,0,0,0,0,0,0,0,0,0,0,0,0,0,0,0,0,0,0,0,0,0,0,0,0,0,0,0,0,0,0,0,0,0,0,0,0,0,0,0,0,0,0,0,0,0,0,0,0,0,0,0,0,0,0,0,0,0,0,0,0,0,0,0,0,0,0,0,0,0,0,0,0,0,0,0,0,0,0,0,0,0,0,0,0,0,0,0,0,0,0,0,0,0,0,0,0,0,0,0,0,0,0,0,0,0,0,0,0,0,0,0,0,0,0,0,0,0,0,0,0,0,0,0,0,0,0,0,0,0,0,0,0,0,0,0,0,0,0,0,0,0,0,0,0,0,0,0,0,0,0,0,0,0,0,0,0,0,0,0,0,0,0,0,0,0,0,0,0,0,0,0,0,0,0],"trees":[{"base_weights":[4.2550158E-2,9.7978145E-1,-1.1168051E0,1.3910152E0,-8.0093044E-1,-1.5686331E0,7.0895326E-1,8.694497E-1,1.5897775E0,-1.505393E0,7.223349E-1,-2.1053133E0,-5.1242447E-1,-2.5562707E-1,7.604771E-2,1.3324114E0,-3.104171E-1,1.6218156E0,1.6594728E-2,-2.022744E0,6.2365174E-1,-3.0918574E-2,6.0059678E-2,9.810701E-3,-2.1907382E0,-1.3239743E0,6.5754056E-1,-7.7341324E-1,4.2770218E-2,7.8773946E-2,2.7966369E-2,6.0376313E-2,-6.1079945E-2,2.4136303E-2,8.190645E-2,-3.900663E-2,-1.0814299E-1,1.5394449E-3,4.673316E-2,-2.875538E-2,-1.1277185E-1,-7.967948E-2,3.0175338E-2,6.5438196E-2,-2.5130471E-2,-7.7183716E-2,1.6585728E-2],"categories":[],"categories_nodes":[],"categories_segments":[],"categories_sizes":[],"default_left":[0,0,0,0,0,0,0,0,0,0,0,0,0,0,0,0,0,0,0,0,0,0,0,0,0,0,0,0,0,0,0,0,0,0,0,0,0,0,0,0,0,0,0,0,0,0,0],"id":0,"left_children":[1,3,5,7,9,11,13,15,17,19,21,23,25,27,-1,29,31,33,-1,35,37,-1,-1,-1,39,41,43,45,-1,-1,-1,-1,-1,-1,-1,-1,-1,-1,-1,-1,-1,-1,-1,-1,-1,-1,-1],"loss_changes":[1.9693646E2,7.448843E1,6.796266E1,7.094223E0,2.1940624E1,3.5920914E1,1.3519868E1,1.3943176E1,1.798996E0,1.625466E1,5.121891E0,8.875977E0,2.30065E1,5.562204E0,0E0,2.4970207E0,1.2251162E1,2.554016E-1,0E0,2.603836E-1,6.0282135E-1,0E0,0E0,0E0,3.0412598E0,8.287714E0,8.376532E0,5.905382E0,0E0,0E0,0E0,0E0,0E0,0E0,0E0,0E0,0E0,0E0,0E0,0E0,0E0,0E0,0E0,0E0,0E0,0E0,0E0],"parents":[2147483647,0,0,1,1,2,2,3,3,4,4,5,5,6,6,7,7,8,8,9,9,10,10,11,11,12,12,13,13,15,15,16,16,17,17,19,19,20,20,24,24,25,25,26,26,27,27],"right_children":[2,4,6,8,10,12,14,16,18,20,22,24,26,28,-1,30,32,34,-1,36,38,-1,-1,-1,40,42,44,46,-1,-1,-1,-1,-1,-1,-1,-1,-1,-1,-1,-1,-1,-1,-1,-1,-1,-1,-1],"split_conditions":[-1.1194864E-1,3.526278E-2,1.782168E-2,7.637072E-2,2.716491E-1,-6.467593E-2,1.5117218E-1,-1.9189294E-1,-1.1403792E-1,2.6408363E-2,-2.4172854E-2,-1.0166733E-1,1.610671E-1,1.1413221E-1,7.604771E-2,1.981854E-1,-4.591383E-2,1.3605797E-1,1.6594728E-2,-7.192658E-1,6.0078993E-2,-3.0918574E-2,6.0059678E-2,9.810701E-3,3.152483E-2,-1.7099112E-2,-5.731827E-1,1.0691786E-1,4.2770218E-2,7.8773946E-2,2.7966369E-2,6.0376313E-2,-6.1079945E-2,2.4136303E-2,8.190645E-2,-3.900663E-2,-1.0814299E-1,1.5394449E-3,4.673316E-2,-2.875538E-2,-1.1277185E-1,-7.967948E-2,3.0175338E-2,6.5438196E-2,-2.5130471E-2,-7.7183716E-2,1.6585728E-2],"split_indices":[4,0,1,8,11,7,2,4,4,1,12,0,2,10,0,23,5,2,0,19,0,0,0,0,12,7,25,14,0,0,0,0,0,0,0,0,0,0,0,0,0,0,0,0,0,0,0],"split_type":[0,0,0,0,0,0,0,0,0,0,0,0,0,0,0,0,0,0,0,0,0,0,0,0,0,0,0,0,0,0,0,0,0,0,0,0,0,0,0,0,0,0,0,0,0,0,0],"sum_hessian":[1.7923662E2,9.9198616E1,8.0038E1,8.0765625E1,1.8432995E1,6.427294E1,1.5765061E1,2.3768862E1,5.699676E1,1.2612049E1,5.8209457E0,4.1959316E1,2.2313625E1,7.5187216E0,8.24634E0,1.6977758E1,6.7911034E0,5.5298985E1,1.6977758E0,1.0186655E1,2.425394E0,1.4552364E0,4.3657093E0,1.4552364E0,4.050408E1,1.3097128E1,9.216497E0,5.335867E0,2.1828547E0,1.212697E1,4.850788E0,2.425394E0,4.3657093E0,1.212697E0,5.408629E1,1.6977758E0,8.488879E0,1.212697E0,1.212697E0,1.9403152E0,3.8563766E1,1.16418915E1,1.4552364E0,5.8209457E0,3.3955517E0,2.9104729E0,2.425394E0],"tree_param":{"num_deleted":"0","num_feature":"32","num_nodes":"47","size_leaf_vector":"1"}},{"base_weights":[-5.9952386E-2,8.528908E-1,-1.1433258E0,1.26945E0,-8.329955E-1,-1.6094602E0,3.3840922E-1,6.1600024E-1,1.5350325E0,-1.4450594E0,4.8347044E-1,-2.0637329E0,-6.160894E-1,-4.8344752E-1,1.0870411E0,1.2859181E0,-3.6687526E-1,1.5658318E0,2.1754863E-2,-1.774082E0,2.1529155E-2,-5.696561E-1,5.6219E-2,9.529902E-3,-1.0727286E-1,-1.3649837E0,3.6037797E-1,-7.4542336E-2,8.661562E-2,-1.0803188E-2,6.9018774E-2,-1.2460686E-2,7.32693E-2,-6.764019E-2,4.1495882E-2,2.2673836E-2,7.9110414E-2,3.736633E-3,-9.926875E-2,2.2638224E-2,-6.644719E-2,-1.7510658E-2,-8.734155E-2,-5.4005887E-2,4.7712576E-2,-3.2888945E-2,5.0024983E-2],"categories":[],"categories_nodes":[],"categories_segments":[],"categories_sizes":[],"default_left":[0,0,0,0,0,0,0,0,0,0,0,0,0,0,0,0,0,0,0,0,0,0,0,0,0,0,0,0,0,0,0,0,0,0,0,0,0,0,0,0,0,0,0,0,0,0,0],"id":1,"left_children":[1,3,5,7,9,11,13,15,17,19,21,23,25,27,29,31,33,35,-1,37,-1,39,-1,-1,-1,41,43,-1,45,-1,-1,-1,-1,-1,-1,-1,-1,-1,-1,-1,-1,-1,-1,-1,-1,-1,-1],"loss_changes":[1.830284E2,7.162129E1,5.898237E1,1.31059265E1,1.7226318E1,2.7850525E1,1.3491294E1,1.6977913E1,1.2463074E0,9.559603E0,5.5401897E0,8.489044E0,1.6343401E1,6.295514E0,4.6313047E0,4.53347E0,1.4030027E1,2.837677E-1,0E0,4.9614296E0,0E0,3.249023E0,0E0,0E0,0E0,4.2228184E0,9.756424E0,0E0,5.96595E0,0E0,0E0,0E0,0E0,0E0,0E0,0E0,0E0,0E0,0E0,0E0,0E0,0E0,0E0,0E0,0E0,0E0,0E0],"parents":[2147483647,0,0,1,1,2,2,3,3,4,4,5,5,6,6,7,7,8,8,9,9,10,10,11,11,12,12,13,13,14,14,15,15,16,16,17,17,19,19,21,21,25,25,26,26,28,28],"right_children":[2,4,6,8,10,12,14,16,18,20,22,24,26,28,30,32,34,36,-1,38,-1,40,-1,-1,-1,42,44,-1,46,-1,-1,-1,-1,-1,-1,-1,-1,-1,-1,-1,-1,-1,-1,-1,-1,-1,-1],"split_conditions":[-1.1194864E-1,3.526278E-2,6.824734E-3,7.637072E-2,2.716491E-1,-6.467593E-2,1.5117218E-1,-4.539727E-2,-1.1403792E-1,2.6408363E-2,1.6327646E-1,-1.0166733E-1,1.0203966E-1,5.552784E-2,1.1711331E-2,-1.9148451E-1,2.734319E-1,1.1578323E-1,2.1754863E-2,-1.0492117E-1,2.1529155E-2,-3.9638974E-2,5.6219E-2,9.529902E-3,-1.0727286E-1,-1.7127828E-1,1.4914057E-1,-7.4542336E-2,1.0691786E-1,-1.0803188E-2,6.9018774E-2,-1.2460686E-2,7.32693E-2,-6.764019E-2,4.1495882E-2,2.2673836E-2,7.9110414E-2,3.736633E-3,-9.926875E-2,2.2638224E-2,-6.644719E-2,-1.7510658E-2,-8.734155E-2,-5.4005887E-2,4.7712576E-2,-3.2888945E-2,5.0024983E-2],"split_indices":[4,0,1,8,11,7,2,5,4,1,6,0,8,10,1,3,11,6,0,8,0,1,0,0,0,3,2,0,14,0,0,0,0,0,0,0,0,0,0,0,0,0,0,0,0,0,0],"split_type":[0,0,0,0,0,0,0,0,0,0,0,0,0,0,0,0,0,0,0,0,0,0,0,0,0,0,0,0,0,0,0,0,0,0,0,0,0,0,0,0,0,0,0,0,0,0,0],"sum_hessian":[1.8308743E2,9.9479454E1,8.360798E1,7.996758E1,1.9511871E1,6.3534615E1,2.007336E1,2.4068335E1,5.589925E1,1.3252644E1,6.2592273E0,4.2857983E1,2.0676634E1,9.73757E0,1.0335792E1,1.4129494E1,9.938841E0,5.396462E1,1.9346318E0,1.1320896E1,1.9317479E0,2.4101331E0,3.8490942E0,1.4527383E0,4.1405243E1,1.1476748E1,9.199885E0,2.9352498E0,6.80232E0,1.9475294E0,8.388262E0,1.4382621E0,1.2691232E1,5.3780217E0,4.560819E0,1.1992272E0,5.2765392E1,1.2274051E0,1.0093491E1,1.1991343E0,1.2109988E0,3.6620076E0,7.8147407E0,2.446618E0,6.7532673E0,3.9032264E0,2.8990936E0],"tree_param":{"num_deleted":"0","num_feature":"32","num_nodes":"47","size_leaf_vector":"1"}},{"base_weights":[2.0463105E-2,-6.0736483E-1,1.0693109E0,1.0773228E0,-1.0973676E0,-3.5794818E-1,1.2414414E0,-6.0322914E-2,1.2801191E0,9.974216E-1,-1.2624904E0,5.4376494E-2,-9.8729384E-1,1.2962613E0,-2.8601846E-2,-7.797912E-1,4.898325E-2,1.3558586E0,-1.3491727E-3,-1.8716484E-2,6.770967E-2,-1.7193109E0,-2.1670383E-1,-8.1706375E-2,9.852471E-3,6.972074E-1,1.4371145E0,-6.130588E-2,1.3897433E-3,2.0041276E-2,7.154109E-2,-3.4877177E-2,-9.251623E-2,5.06181E-2,-4.6902653E-2,-4.3086164E-2,4.4401236E-2,6.051567E-2,-1.0841803E-2,1.5257614E-2,7.362336E-2],"categories":[],"categories_nodes":[],"categories_segments":[],"categories_sizes":[],"default_left":[0,0,0,0,0,0,0,0,0,0,0,0,0,0,0,0,0,0,0,0,0,0,0,0,0,0,0,0,0,0,0,0,0,0,0,0,0,0,0,0,0],"id":2,"left_children":[1,3,5,7,9,11,13,15,17,19,21,-1,23,25,-1,27,-1,29,-1,-1,-1,31,33,-1,35,37,39,-1,-1,-1,-1,-1,-1,-1,-1,-1,-1,-1,-1,-1,-1],"loss_changes":[1.1859594E2,9.420261E1,1.7010597E1,6.0513554E0,3.162519E1,8.381696E0,6.7459717E0,4.409798E0,2.2167397E0,3.9195318E0,3.8713913E1,0E0,3.9639373E0,3.970642E0,0E0,1.2729068E0,0E0,9.181404E-1,0E0,0E0,0E0,6.312622E0,2.4016644E1,0E0,3.3693063E0,6.434948E0,1.4223557E0,0E0,0E0,0E0,0E0,0E0,0E0,0E0,0E0,0E0,0E0,0E0,0E0,0E0,0E0],"parents":[2147483647,0,0,1,1,2,2,3,3,4,4,5,5,6,6,7,7,8,8,9,9,10,10,12,12,13,13,15,15,17,17,21,21,22,22,24,24,25,25,26,26],"right_children":[2,4,6,8,10,12,14,16,18,20,22,-1,24,26,-1,28,-1,30,-1,-1,-1,32,34,-1,36,38,40,-1,-1,-1,-1,-1,-1,-1,-1,-1,-1,-1,-1,-1,-1],"split_conditions":[6.824734E-3,-7.088019E-2,1.2384856E-1,2.0549312E-1,-9.367327E-2,-1.9368913E-2,6.619004E-1,1.205913E-1,5.536406E-1,2.557111E-1,-6.552545E-2,5.4376494E-2,4.320553E-2,1.6287611E-1,-2.8601846E-2,-1.3482498E-2,4.898325E-2,-4.9998578E-1,-1.3491727E-3,-1.8716484E-2,6.770967E-2,3.725044E-2,-1.7559282E-2,-8.1706375E-2,4.7960952E-2,-1.6487934E-2,-5.453854E-1,-6.130588E-2,1.3897433E-3,2.0041276E-2,7.154109E-2,-3.4877177E-2,-9.251623E-2,5.06181E-2,-4.6902653E-2,-4.3086164E-2,4.4401236E-2,6.051567E-2,-1.0841803E-2,1.5257614E-2,7.362336E-2],"split_indices":[1,0,6,11,8,0,26,8,16,11,7,0,1,11,0,1,0,16,0,0,0,12,0,0,12,5,13,0,0,0,0,0,0,0,0,0,0,0,0,0,0],"split_type":[0,0,0,0,0,0,0,0,0,0,0,0,0,0,0,0,0,0,0,0,0,0,0,0,0,0,0,0,0,0,0,0,0,0,0,0,0,0,0,0,0],"sum_hessian":[1.7811497E2,1.1168348E2,6.6431496E1,2.489453E1,8.678895E1,7.033353E0,5.939814E1,3.8725972E0,2.1021933E1,5.973033E0,8.081592E1,1.9125602E0,5.1207924E0,5.793211E1,1.4660301E0,2.4369183E0,1.435679E0,1.9835285E1,1.1866473E0,1.222692E0,4.750341E0,5.579813E1,2.5017782E1,2.7185233E0,2.4022691E0,1.2160968E1,4.5771145E1,1.235724E0,1.2011944E0,1.9055469E0,1.7929737E1,7.060207E0,4.8737926E1,9.10347E0,1.5914312E1,1.2150636E0,1.1872056E0,7.581115E0,4.5798535E0,1.677897E0,4.4093246E1],"tree_param":{"num_deleted":"0","num_feature":"32","num_nodes":"41","size_leaf_vector":"1"}},{"base_weights":[2.7252633E-2,1.0603819E0,-7.860607E-1,4.8963115E-1,1.5141056E0,-1.5754404E0,-2.303699E-1,1.0023499E0,-1.0432388E0,1.9979244E-2,7.6765224E-2,-5.438268E-2,-1.8962433E0,-7.835506E-1,5.3678787E-1,-2.8980637E-2,1.1110815E0,-1.5894935E0,3.78724E-2,8.4467983E-1,-9.152217E-1,3.0011705E-3,-9.851932E-2,8.7692356E-1,-1.0969076E0,-2.9779273E-1,1.3327616E0,-2.845241E-2,6.16026E-2,-8.941297E-2,-1.5250945E-2,1.0136236E-3,5.6692082E-2,-7.5316265E-2,2.2122597E-2,-1.0483268E-2,6.264193E-2,-6.7095034E-2,2.3813743E-2,-5.3814758E-2,2.5488133E-2,2.7075503E-2,7.259061E-2],"categories":[],"categories_nodes":[],"categories_segments":[],"categories_sizes":[],"default_left":[0,0,0,0,0,0,0,0,0,0,0,0,0,0,0,0,0,0,0,0,0,0,0,0,0,0,0,0,0,0,0,0,0,0,0,0,0,0,0,0,0,0,0],"id":3,"left_children":[1,3,5,7,9,11,13,15,17,-1,-1,19,21,23,25,-1,27,29,-1,31,33,-1,-1,35,37,39,41,-1,-1,-1,-1,-1,-1,-1,-1,-1,-1,-1,-1,-1,-1,-1,-1],"loss_changes":[1.5081372E2,1.9729057E1,4.369758E1,2.9721859E1,4.1571808E-1,2.0062256E1,2.5933956E1,5.4347286E0,1.0681563E1,0E0,0E0,7.140645E0,5.0640335E0,1.9348955E1,1.7523766E1,0E0,6.0674477E0,1.424366E0,0E0,1.0603385E0,4.424706E0,0E0,0E0,2.781198E0,1.2268002E1,8.9748955E0,4.7408867E-1,0E0,0E0,0E0,0E0,0E0,0E0,0E0,0E0,0E0,0E0,0E0,0E0,0E0,0E0,0E0,0E0],"parents":[2147483647,0,0,1,1,2,2,3,3,4,4,5,5,6,6,7,7,8,8,11,11,12,12,13,13,14,14,16,16,17,17,19,19,20,20,23,23,24,24,25,25,26,26],"right_children":[2,4,6,8,10,12,14,16,18,-1,-1,20,22,24,26,-1,28,30,-1,32,34,-1,-1,36,38,40,42,-1,-1,-1,-1,-1,-1,-1,-1,-1,-1,-1,-1,-1,-1,-1,-1],"split_conditions":[-6.46082E-2,4.7512106E-3,5.8860056E-2,-9.169839E-3,-8.1684446E-1,-6.380826E-2,1.8236986E-1,1.1243501E-1,1.1413221E-1,1.9979244E-2,7.6765224E-2,9.332552E-2,2.244759E-2,-6.310372E-2,-1.4397465E-1,-2.8980637E-2,6.865448E-2,5.3457774E-2,3.78724E-2,-3.609183E-1,1.6664675E-1,3.0011705E-3,-9.851932E-2,6.3176966E-1,4.320553E-2,1.711325E-1,-8.965814E-2,-2.845241E-2,6.16026E-2,-8.941297E-2,-1.5250945E-2,1.0136236E-3,5.6692082E-2,-7.5316265E-2,2.2122597E-2,-1.0483268E-2,6.264193E-2,-6.7095034E-2,2.3813743E-2,-5.3814758E-2,2.5488133E-2,2.7075503E-2,7.259061E-2],"split_indices":[15,1,10,0,19,0,6,28,10,0,0,17,12,0,3,0,14,0,0,22,17,0,0,20,1,9,26,0,0,0,0,0,0,0,0,0,0,0,0,0,0,0,0],"split_type":[0,0,0,0,0,0,0,0,0,0,0,0,0,0,0,0,0,0,0,0,0,0,0,0,0,0,0,0,0,0,0,0,0,0,0,0,0,0,0,0,0,0,0],"sum_hessian":[1.7749307E2,7.80476E1,9.944547E1,3.5486874E1,4.2560726E1,4.0325905E1,5.9119568E1,2.6851578E1,8.635297E0,1.1649216E0,4.1395805E1,7.227394E0,3.309851E1,3.4337894E1,2.4781675E1,1.4483609E0,2.5403217E1,6.7154026E0,1.9198942E0,3.5443926E0,3.6830015E0,1.215591E0,3.1882921E1,5.1658173E0,2.9172077E1,1.2402987E1,1.2378688E1,1.457421E0,2.3945797E1,5.4758344E0,1.2395684E0,1.1982524E0,2.3461401E0,2.489593E0,1.1934084E0,1.4414717E0,3.7243457E0,2.5368443E1,3.8036351E0,6.145652E0,6.2573347E0,2.3445523E0,1.0034136E1],"tree_param":{"num_deleted":"0","num_feature":"32","num_nodes":"43","size_leaf_vector":"1"}},{"base_weights":[-1.8486168E-2,9.7365487E-1,-8.439025E-1,1.3200692E0,-7.706327E-2,-1.0991603E0,7.427205E-1,1.4002461E0,4.0437233E-1,-1.4090374E0,7.8691494E-1,1.0000153E0,-1.2931775E0,1.2461456E-1,1.1703953E0,1.4425015E0,1.1776782E-2,8.639363E-1,-4.23269E-2,-8.862342E-2,2.3230499E-2,-2.2337401E-1,1.2190808E0,6.590327E-2,-5.232368E-3,8.9867663E-1,-1.4295806E0,-5.684861E-2,8.610448E-1,1.776546E-4,6.832719E-2,2.0448612E-2,7.2876826E-2,-3.9209127E-3,5.7935406E-2,4.8843466E-2,-5.014969E-2,6.6712694E-3,6.947016E-2,-1.984939E-3,5.918334E-2,-8.202717E-2,-3.767816E-2,5.7463374E-2,-1.7948973E-3],"categories":[],"categories_nodes":[],"categories_segments":[],"categories_sizes":[],"default_left":[0,0,0,0,0,0,0,0,0,0,0,0,0,0,0,0,0,0,0,0,0,0,0,0,0,0,0,0,0,0,0,0,0,0,0,0,0,0,0,0,0,0,0,0,0],"id":4,"left_children":[1,3,5,7,9,11,13,15,17,19,21,23,25,27,29,31,-1,33,-1,-1,-1,35,37,-1,-1,39,41,-1,43,-1,-1,-1,-1,-1,-1,-1,-1,-1,-1,-1,-1,-1,-1,-1,-1],"loss_changes":[1.4679044E2,2.9733963E1,4.0438347E1,3.9328537E0,2.5425577E1,3.5780357E1,3.595982E0,2.4133759E0,4.3758736E0,6.728573E0,6.148448E0,2.853116E0,2.4589737E1,7.3968673E0,1.8826857E0,2.3970795E-1,0E0,1.5162282E0,0E0,0E0,0E0,5.543705E0,1.586278E0,0E0,0E0,1.4324679E0,9.284225E0,0E0,1.3159628E0,0E0,0E0,0E0,0E0,0E0,0E0,0E0,0E0,0E0,0E0,0E0,0E0,0E0,0E0,0E0,0E0],"parents":[2147483647,0,0,1,1,2,2,3,3,4,4,5,5,6,6,7,7,8,8,9,9,10,10,11,11,12,12,13,13,14,14,15,15,17,17,21,21,22,22,25,25,26,26,28,28],"right_children":[2,4,6,8,10,12,14,16,18,20,22,24,26,28,30,32,-1,34,-1,-1,-1,36,38,-1,-1,40,42,-1,44,-1,-1,-1,-1,-1,-1,-1,-1,-1,-1,-1,-1,-1,-1,-1,-1],"split_conditions":[-6.1211515E-2,-1.1151657E-1,2.7141327E-2,4.0393997E-2,-3.150654E-2,-1.0737432E-1,1.1056257E-1,3.526278E-2,-7.273896E-2,-5.2026346E-2,1.5262485E-1,6.38428E-2,-1.02293625E-1,9.104813E-2,-1.308771E-1,-3.8499168E-1,1.1776782E-2,-2.3723972E-1,-4.23269E-2,-8.862342E-2,2.3230499E-2,-8.929849E-2,1.3387932E-1,6.590327E-2,-5.232368E-3,-2.6613679E-2,-6.92838E-2,-5.684861E-2,7.436101E-1,1.776546E-4,6.832719E-2,2.0448612E-2,7.2876826E-2,-3.9209127E-3,5.7935406E-2,4.8843466E-2,-5.014969E-2,6.6712694E-3,6.947016E-2,-1.984939E-3,5.918334E-2,-8.202717E-2,-3.767816E-2,5.7463374E-2,-1.7948973E-3],"split_indices":[15,4,1,5,1,8,10,0,0,7,2,15,0,14,8,27,0,15,0,0,0,15,20,0,0,10,7,0,20,0,0,0,0,0,0,0,0,0,0,0,0,0,0,0,0],"split_type":[0,0,0,0,0,0,0,0,0,0,0,0,0,0,0,0,0,0,0,0,0,0,0,0,0,0,0,0,0,0,0,0,0,0,0,0,0,0,0,0,0,0,0,0,0],"sum_hessian":[1.772434E2,8.0410866E1,9.6832535E1,6.028047E1,2.0130392E1,8.367761E1,1.3154922E1,5.4940784E1,5.3396907E0,7.6719165E0,1.2458477E1,6.7281284E0,7.6949486E1,5.9078526E0,7.247069E0,5.278717E1,2.1536107E0,4.13128E0,1.2084107E0,6.4707813E0,1.201135E0,3.8773623E0,8.581115E0,5.074046E0,1.6540825E0,4.1807537E0,7.276873E1,1.97705E0,3.9308026E0,1.1894453E0,6.0576234E0,1.1612649E0,5.1625908E1,1.1592495E0,2.9720304E0,1.427179E0,2.4501832E0,1.4055216E0,7.175593E0,1.1744368E0,3.0063171E0,5.4373707E1,1.8395021E1,2.761961E0,1.1688416E0],"tree_param":{"num_deleted":"0","num_feature":"32","num_nodes":"45","size_leaf_vector":"1"}},{"base_weights":[-1.4464822E-2,9.6482456E-1,-7.633684E-1,1.3080087E0,-1.1680741E-1,7.393584E-1,-9.7987837E-1,8.3735585E-1,7.213302E-2,-1.3585913E0,7.502948E-1,-9.8889923E-1,1.2254305E0,-1.3509023E0,6.217809E-2,-3.1556353E-2,6.857718E-2,-9.820229E-3,-7.8396246E-2,-3.12305E-2,1.1166816E0,-6.1905153E-2,-1.4907129E-2,1.2929173E0,1.7207237E-2,3.2185756E-2,-1.5153127E0,1.0024043E0,-6.425261E-1,5.312887E-2,-4.0149298E-2,-4.1148206E-3,6.819718E-2,6.850475E-2,1.9222386E-2,4.598011E-2,-6.063624E-2,-1.0392538E-2,-8.084919E-2,6.5047614E-2,-2.6396109E-2,-6.0178626E-2,2.0058297E-2],"categories":[],"categories_nodes":[],"categories_segments":[],"categories_sizes":[],"default_left":[0,0,0,0,0,0,0,0,0,0,0,0,0,0,0,0,0,0,0,0,0,0,0,0,0,0,0,0,0,0,0,0,0,0,0,0,0,0,0,0,0,0,0],"id":5,"left_children":[1,3,5,7,9,11,13,15,-1,17,19,21,23,25,27,29,-1,-1,-1,-1,31,-1,-1,33,-1,35,37,39,41,-1,-1,-1,-1,-1,-1,-1,-1,-1,-1,-1,-1,-1,-1],"loss_changes":[1.3058545E2,2.8796875E1,3.354823E1,2.509636E0,2.202086E1,1.2363496E1,3.4343468E1,7.2066345E0,0E0,1.7296495E0,6.807499E0,2.277453E-1,1.9782448E-1,1.4917824E1,1.6693144E1,6.637577E0,0E0,0E0,0E0,0E0,3.0578127E0,0E0,0E0,1.5169144E-1,0E0,9.87183E0,7.4354095E0,5.606241E0,8.946788E0,0E0,0E0,0E0,0E0,0E0,0E0,0E0,0E0,0E0,0E0,0E0,0E0,0E0,0E0],"parents":[2147483647,0,0,1,1,2,2,3,3,4,4,5,5,6,6,7,7,9,9,10,10,11,11,12,12,13,13,14,14,15,15,20,20,23,23,25,25,26,26,27,27,28,28],"right_children":[2,4,6,8,10,12,14,16,-1,18,20,22,24,26,28,30,-1,-1,-1,-1,32,-1,-1,34,-1,36,38,40,42,-1,-1,-1,-1,-1,-1,-1,-1,-1,-1,-1,-1,-1,-1],"split_conditions":[-6.251511E-2,-1.1151657E-1,-9.367327E-2,8.099977E-2,1.0203966E-1,1.2384856E-1,-5.598976E-2,7.483084E-2,7.213302E-2,1.1605752E-1,-9.2003316E-2,1.5362862E-1,4.2217E-1,-6.534071E-2,-8.344002E-2,-8.196371E-1,6.857718E-2,-9.820229E-3,-7.8396246E-2,-3.12305E-2,6.865448E-2,-6.1905153E-2,-1.4907129E-2,-2.363205E-3,1.7207237E-2,-1.1422075E-2,2.086122E-2,1.2824841E-1,6.7336667E-1,5.312887E-2,-4.0149298E-2,-4.1148206E-3,6.819718E-2,6.850475E-2,1.9222386E-2,4.598011E-2,-6.063624E-2,-1.0392538E-2,-8.084919E-2,6.5047614E-2,-2.6396109E-2,-6.0178626E-2,2.0058297E-2],"split_indices":[15,4,8,8,8,6,13,10,0,14,13,17,6,0,4,4,0,0,0,0,14,0,0,31,0,15,12,12,20,0,0,0,0,0,0,0,0,0,0,0,0,0,0],"split_type":[0,0,0,0,0,0,0,0,0,0,0,0,0,0,0,0,0,0,0,0,0,0,0,0,0,0,0,0,0,0,0,0,0,0,0,0,0,0,0,0,0,0,0],"sum_hessian":[1.7605225E2,7.6166405E1,9.988584E1,5.7661922E1,1.850448E1,1.2274883E1,8.761096E1,1.4432866E1,4.3229053E1,7.3753567E0,1.1129124E1,2.467406E0,9.807477E0,6.4388916E1,2.3222042E1,5.853104E0,8.5797615E0,1.4215231E0,5.9538336E0,2.193395E0,8.935729E0,1.2309353E0,1.2364706E0,8.676008E0,1.1314687E0,6.926294E0,5.7462624E1,9.767568E0,1.3454474E1,2.2642543E0,3.58885E0,1.6417973E0,7.2939315E0,7.5283146E0,1.1476939E0,4.196319E0,2.7299747E0,4.3656707E0,5.3096954E1,8.298515E0,1.4690523E0,8.650909E0,4.803565E0],"tree_param":{"num_deleted":"0","num_feature":"32","num_nodes":"43","size_leaf_vector":"1"}},{"base_weights":[1.2986807E-2,9.875039E-1,-6.9441754E-1,1.2829515E0,1.8620225E-2,-1.3713657E0,-2.1889347E-1,1.3377137E0,4.6956205E-1,-1.0939673E0,7.143569E-1,5.480134E-2,-1.6915107E0,5.1194232E-2,-7.987522E-2,1.3643698E0,2.0307323E-2,5.35855E-2,-2.503339E-2,1.0204632E-4,-7.739728E-2,-3.3883166E-2,1.014503E0,-1.0787882E0,6.1835796E-2,-8.780833E-2,-8.230366E-1,-4.7625548E-1,8.2248616E-1,1.8747611E-2,6.897914E-2,4.7181873E-4,6.0869426E-2,-1.8424723E-2,-6.67582E-2,-6.40266E-2,7.833336E-3,-4.997984E-2,2.2531938E-2,5.1613618E-2,-5.0977375E-2],"categories":[],"categories_nodes":[],"categories_segments":[],"categories_sizes":[],"default_left":[0,0,0,0,0,0,0,0,0,0,0,0,0,0,0,0,0,0,0,0,0,0,0,0,0,0,0,0,0,0,0,0,0,0,0,0,0,0,0,0,0],"id":6,"left_children":[1,3,5,7,9,11,13,15,17,19,21,23,25,27,-1,29,-1,-1,-1,-1,-1,-1,31,33,-1,-1,35,37,39,-1,-1,-1,-1,-1,-1,-1,-1,-1,-1,-1,-1],"loss_changes":[1.2021986E2,2.097036E1,3.222928E1,1.8746643E0,1.4833166E1,1.9043404E1,2.2626287E1,7.396698E-1,3.5074475E0,3.6748123E0,5.6066875E0,1.282663E1,4.5973206E-1,2.1382448E1,0E0,2.3879242E-1,0E0,0E0,0E0,0E0,0E0,0E0,2.0451603E0,4.0257025E-1,0E0,0E0,2.0978296E0,1.5621771E1,9.291831E0,0E0,0E0,0E0,0E0,0E0,0E0,0E0,0E0,0E0,0E0,0E0,0E0],"parents":[2147483647,0,0,1,1,2,2,3,3,4,4,5,5,6,6,7,7,8,8,9,9,10,10,11,11,12,12,13,13,15,15,22,22,23,23,26,26,27,27,28,28],"right_children":[2,4,6,8,10,12,14,16,18,20,22,24,26,28,-1,30,-1,-1,-1,-1,-1,-1,32,34,-1,-1,36,38,40,-1,-1,-1,-1,-1,-1,-1,-1,-1,-1,-1,-1],"split_conditions":[-6.5044895E-2,-1.1151657E-1,5.8860056E-2,5.5454407E-2,1.0179709E-1,-6.534071E-2,-4.5825507E-2,3.2534588E-2,-3.397498E-1,-7.0851706E-3,1.15111105E-1,1.610671E-1,-6.4804055E-2,1.8223041E-1,-7.987522E-2,-3.528896E-1,2.0307323E-2,5.35855E-2,-2.503339E-2,1.0204632E-4,-7.739728E-2,-3.3883166E-2,1.4170514E-1,-9.0044774E-2,6.1835796E-2,-8.780833E-2,1.5588161E-1,-9.267296E-2,2.2895426E-2,1.8747611E-2,6.897914E-2,4.7181873E-4,6.0869426E-2,-1.8424723E-2,-6.67582E-2,-6.40266E-2,7.833336E-3,-4.997984E-2,2.2531938E-2,5.1613618E-2,-5.0977375E-2],"split_indices":[15,4,10,5,8,0,4,0,0,5,9,2,13,6,0,27,0,0,0,0,0,0,2,4,0,0,2,13,5,0,0,0,0,0,0,0,0,0,0,0,0],"split_type":[0,0,0,0,0,0,0,0,0,0,0,0,0,0,0,0,0,0,0,0,0,0,0,0,0,0,0,0,0,0,0,0,0,0,0,0,0,0,0,0,0],"sum_hessian":[1.7239424E2,7.234127E1,1.0005297E2,5.5188236E1,1.7153036E1,4.0505753E1,5.9547215E1,5.110305E1,4.0851855E0,6.379257E0,1.0773778E1,7.5777154E0,3.2928036E1,5.0597397E1,8.94982E0,4.922979E1,1.8732617E0,2.4562094E0,1.6289762E0,2.160007E0,4.21925E0,1.6878898E0,9.085888E0,3.9124691E0,3.6652462E0,2.9695168E1,3.2328691E0,3.0275768E1,2.0321629E1,1.1338508E0,4.809594E1,1.7018195E0,7.3840685E0,1.684063E0,2.2284062E0,1.994452E0,1.238417E0,1.9300129E1,1.097564E1,1.8638521E1,1.6831079E0],"tree_param":{"num_deleted":"0","num_feature":"32","num_nodes":"41","size_leaf_vector":"1"}},{"base_weights":[-5.45782E-3,8.904698E-1,-6.7253864E-1,3.10603E-1,1.3608726E0,-9.0741265E-1,6.751587E-1,-5.26323E-1,7.5349605E-1,7.0138454E-2,4.331659E-3,-1.096738E0,4.3517715E-1,1.3302173E-1,6.426319E-2,-1.3123236E0,2.2987545E-1,-3.7197575E-1,9.417282E-1,-1.3917861E0,-6.0583776E-1,9.995707E-1,-7.079742E-1,-7.1362156E-1,5.391993E-1,1.8516596E-4,-8.0317E-2,-5.016465E-2,3.9534464E-2,8.749219E-3,-3.978009E-2,5.9608437E-2,9.734011E-3,-1.6412793E-2,-7.6777935E-2,-5.49999E-2,4.2960238E-2,-2.5173414E-3,5.9245195E-2,-5.7351876E-2,9.623637E-4,-5.839569E-2,3.4447163E-3,-1.2894101E-2,5.8864117E-2],"categories":[],"categories_nodes":[],"categories_segments":[],"categories_sizes":[],"default_left":[0,0,0,0,0,0,0,0,0,0,0,0,0,0,0,0,0,0,0,0,0,0,0,0,0,0,0,0,0,0,0,0,0,0,0,0,0,0,0,0,0,0,0,0,0],"id":7,"left_children":[1,3,5,7,9,11,13,15,17,-1,-1,19,21,23,-1,25,27,29,31,33,35,37,39,41,43,-1,-1,-1,-1,-1,-1,-1,-1,-1,-1,-1,-1,-1,-1,-1,-1,-1,-1,-1,-1],"loss_changes":[1.0478165E2,1.9988308E1,3.242184E1,1.3299724E1,2.0682526E0,2.2338081E1,4.9516783E0,7.811696E0,5.259968E0,0E0,0E0,1.0115089E1,8.0272045E0,3.58843E0,0E0,2.4608812E0,5.835337E0,1.0747273E0,3.5354996E0,6.6038055E0,2.2789524E1,1.618207E0,1.4062841E0,1.3071628E0,3.7952929E0,0E0,0E0,0E0,0E0,0E0,0E0,0E0,0E0,0E0,0E0,0E0,0E0,0E0,0E0,0E0,0E0,0E0,0E0,0E0,0E0],"parents":[2147483647,0,0,1,1,2,2,3,3,4,4,5,5,6,6,7,7,8,8,11,11,12,12,13,13,15,15,16,16,17,17,18,18,19,19,20,20,21,21,22,22,23,23,24,24],"right_children":[2,4,6,8,10,12,14,16,18,-1,-1,20,22,24,-1,26,28,30,32,34,36,38,40,42,44,-1,-1,-1,-1,-1,-1,-1,-1,-1,-1,-1,-1,-1,-1,-1,-1,-1,-1,-1,-1],"split_conditions":[-6.251511E-2,4.7512106E-3,2.7141327E-2,1.7780796E-1,6.0577404E-1,2.7758348E-1,1.7832133E-1,5.8860056E-2,-8.1955194E-2,7.0138454E-2,4.331659E-3,-9.267296E-2,5.7090983E-2,2.6790041E-2,6.426319E-2,-1.729365E-1,8.999267E-2,-9.931053E-2,9.692314E-2,-4.8893113E-2,1.65015E-1,3.1247804E-1,-1.115312E-1,-4.7613838E-1,1.0150719E-1,1.8516596E-4,-8.0317E-2,-5.016465E-2,3.9534464E-2,8.749219E-3,-3.978009E-2,5.9608437E-2,9.734011E-3,-1.6412793E-2,-7.6777935E-2,-5.49999E-2,4.2960238E-2,-2.5173414E-3,5.9245195E-2,-5.7351876E-2,9.623637E-4,-5.839569E-2,3.4447163E-3,-1.2894101E-2,5.8864117E-2],"split_indices":[15,1,1,2,16,11,6,10,17,0,0,13,12,12,0,29,14,15,12,15,2,20,5,18,10,0,0,0,0,0,0,0,0,0,0,0,0,0,0,0,0,0,0,0,0],"split_type":[0,0,0,0,0,0,0,0,0,0,0,0,0,0,0,0,0,0,0,0,0,0,0,0,0,0,0,0,0,0,0,0,0,0,0,0,0,0,0,0,0,0,0,0,0],"sum_hessian":[1.7331892E2,7.3828354E1,9.949057E1,3.3810436E1,4.0017918E1,8.50031E1,1.4487476E1,1.1635221E1,2.2175215E1,3.8646378E1,1.3715409E0,7.465827E1,1.034482E1,8.315969E0,6.171507E0,5.3445835E0,6.2906375E0,3.0374753E0,1.913774E1,4.5485023E1,2.9173252E1,7.00964E0,3.33518E0,2.4507225E0,5.8652472E0,1.1563095E0,4.188274E0,1.7198596E0,4.570778E0,1.5819257E0,1.4555497E0,1.3886564E1,5.2511764E0,5.807598E0,3.9677425E1,2.2001347E1,7.1719055E0,1.1609827E0,5.8486576E0,1.7196472E0,1.6155328E0,1.2389404E0,1.2117821E0,2.872644E0,2.9926035E0],"tree_param":{"num_deleted":"0","num_feature":"32","num_nodes":"45","size_leaf_vector":"1"}},{"base_weights":[-3.0048545E-2,7.304305E-1,-8.5841286E-1,1.0656891E0,-5.7571596E-1,-1.2199074E0,3.3270544E-1,5.340457E-1,1.3009187E0,2.8644577E-1,-1.3962865E0,-1.4428796E0,-4.4517845E-2,-6.3968927E-1,1.1946937E0,1.1654537E0,-3.1831935E-1,1.328904E0,1.5737291E-2,8.1788117E-1,-5.7764196E-1,-8.0275245E-2,-4.624301E-3,2.0592036E-2,-1.492677E0,1.0634649E0,-7.9576993E-1,-9.183384E-1,4.0588006E-2,5.8621564E-3,6.593053E-2,6.675393E-2,-2.438681E-3,5.52441E-2,-5.104038E-2,6.821295E-2,2.1124085E-2,-1.4319347E-2,6.286868E-2,1.8901205E-2,-6.4483E-2,-8.146085E-2,-4.2247962E-2,1.5169482E-2,6.01385E-2,-6.984719E-2,3.6635388E-2,-7.4448004E-2,5.3523243E-3],"categories":[],"categories_nodes":[],"categories_segments":[],"categories_sizes":[],"default_left":[0,0,0,0,0,0,0,0,0,0,0,0,0,0,0,0,0,0,0,0,0,0,0,0,0,0,0,0,0,0,0,0,0,0,0,0,0,0,0,0,0,0,0,0,0,0,0,0,0],"id":8,"left_children":[1,3,5,7,9,11,13,15,17,19,21,23,25,27,29,31,33,35,-1,37,39,-1,-1,-1,41,43,45,47,-1,-1,-1,-1,-1,-1,-1,-1,-1,-1,-1,-1,-1,-1,-1,-1,-1,-1,-1,-1,-1],"loss_changes":[1.0715077E2,3.94557E1,3.545365E1,8.176247E0,1.3676699E1,1.6357376E1,1.7307781E1,1.2994175E1,9.197006E-1,5.0558653E0,2.5207844E0,5.4762344E0,1.0021506E1,4.7599516E0,1.2888613E0,2.8844204E0,1.1892036E1,9.2443085E-1,0E0,3.56034E0,3.4726973E0,0E0,0E0,0E0,3.175888E0,1.5201044E-1,7.5852394E0,5.306241E0,0E0,0E0,0E0,0E0,0E0,0E0,0E0,0E0,0E0,0E0,0E0,0E0,0E0,0E0,0E0,0E0,0E0,0E0,0E0,0E0,0E0],"parents":[2147483647,0,0,1,1,2,2,3,3,4,4,5,5,6,6,7,7,8,8,9,9,10,10,11,11,12,12,13,13,14,14,15,15,16,16,17,17,19,19,20,20,24,24,25,25,26,26,27,27],"right_children":[2,4,6,8,10,12,14,16,18,20,22,24,26,28,30,32,34,36,-1,38,40,-1,-1,-1,42,44,46,48,-1,-1,-1,-1,-1,-1,-1,-1,-1,-1,-1,-1,-1,-1,-1,-1,-1,-1,-1,-1,-1],"split_conditions":[-1.1194864E-1,3.526278E-2,8.758796E-3,7.637072E-2,3.600209E-2,-4.1541234E-2,1.5117218E-1,-4.539727E-2,-1.1531689E-1,-1.3430434E-1,-1.3435493E-1,-1.0166733E-1,1.4830641E-3,1.323296E-1,1.1711331E-2,8.057929E-2,-8.196371E-1,4.1795198E-2,1.5737291E-2,2.0172873E-1,1.0992539E-1,-8.0275245E-2,-4.624301E-3,2.0592036E-2,-6.467593E-2,5.6883045E-2,1.323296E-1,1.10364854E-1,4.0588006E-2,5.8621564E-3,6.593053E-2,6.675393E-2,-2.438681E-3,5.52441E-2,-5.104038E-2,6.821295E-2,2.1124085E-2,-1.4319347E-2,6.286868E-2,1.8901205E-2,-6.4483E-2,-8.146085E-2,-4.2247962E-2,1.5169482E-2,6.01385E-2,-6.984719E-2,3.6635388E-2,-7.4448004E-2,5.3523243E-3],"split_indices":[4,0,1,8,12,7,2,5,4,7,19,0,0,10,1,15,4,5,0,10,0,0,0,0,7,12,10,14,0,0,0,0,0,0,0,0,0,0,0,0,0,0,0,0,0,0,0,0,0],"split_type":[0,0,0,0,0,0,0,0,0,0,0,0,0,0,0,0,0,0,0,0,0,0,0,0,0,0,0,0,0,0,0,0,0,0,0,0,0,0,0,0,0,0,0,0,0,0,0,0,0],"sum_hessian":[1.6809778E2,8.770162E1,8.039616E1,6.993497E1,1.776665E1,6.1658993E1,1.8737164E1,2.245489E1,4.748008E1,8.981175E0,8.785474E0,5.163603E1,1.00229645E1,8.925898E0,9.811267E0,1.2688379E1,9.76651E0,4.5831936E1,1.6481435E0,5.5941243E0,3.387051E0,7.3712234E0,1.4142501E0,1.1600317E0,5.0475998E1,3.8820055E0,6.140959E0,7.7964344E0,1.1294634E0,1.2127355E0,8.598531E0,1.1045778E1,1.6426007E0,3.0382917E0,6.7282186E0,4.3625233E1,2.2067027E0,1.6917657E0,3.9023588E0,1.6463761E0,1.740675E0,4.0436584E1,1.00394125E1,1.093506E0,2.7884996E0,4.469207E0,1.671752E0,4.718509E0,3.0779252E0],"tree_param":{"num_deleted":"0","num_feature":"32","num_nodes":"49","size_leaf_vector":"1"}},{"base_weights":[-4.242776E-3,9.8010665E-1,-5.426467E-1,2.208806E-1,1.2491479E0,2.8448187E-2,-1.0542773E0,1.1206104E0,-5.058492E-1,1.314734E0,1.4381136E-1,-4.4375503E-1,9.166787E-1,-1.2969594E0,8.7593007E-4,6.025457E-2,1.619982E-2,-1.1083902E0,4.1317932E-2,6.664853E-2,1.6116686E-2,3.6825325E-2,-2.0315528E-2,4.501475E-1,-1.1569327E0,-6.596073E-2,1.256141E0,-1.4618481E0,-5.164124E-1,-5.8407176E-1,8.818384E-1,-7.7533804E-2,3.7316173E-2,4.410782E-2,-1.9995904E-2,4.3746103E-2,-6.883918E-2,-3.2545183E-2,4.5232873E-2,2.743192E-2,6.839888E-2,1.9689577E-2,-7.6601885E-2,2.2398656E-2,-7.5120375E-2,8.676951E-3,-7.0514396E-2,5.6931037E-2,1.130422E-3],"categories":[],"categories_nodes":[],"categories_segments":[],"categories_sizes":[],"default_left":[0,0,0,0,0,0,0,0,0,0,0,0,0,0,0,0,0,0,0,0,0,0,0,0,0,0,0,0,0,0,0,0,0,0,0,0,0,0,0,0,0,0,0,0,0,0,0,0,0],"id":9,"left_children":[1,3,5,7,9,11,13,15,17,19,21,23,25,27,29,-1,-1,31,-1,-1,-1,-1,-1,33,35,37,39,41,43,45,47,-1,-1,-1,-1,-1,-1,-1,-1,-1,-1,-1,-1,-1,-1,-1,-1,-1,-1],"loss_changes":[8.7655815E1,1.1669552E1,3.126827E1,1.1366036E1,2.925644E0,2.2004416E1,1.4447807E1,1.2712574E-1,8.802853E0,3.0213165E-1,1.4500207E0,2.2383587E1,6.153614E0,5.1485443E0,6.4663725E0,0E0,0E0,7.0574617E0,0E0,0E0,0E0,0E0,0E0,6.2060213E0,9.850714E0,3.7813287E0,3.2370758E-1,5.4644623E0,9.750093E0,4.965675E0,1.0789375E0,0E0,0E0,0E0,0E0,0E0,0E0,0E0,0E0,0E0,0E0,0E0,0E0,0E0,0E0,0E0,0E0,0E0,0E0],"parents":[2147483647,0,0,1,1,2,2,3,3,4,4,5,5,6,6,7,7,8,8,9,9,10,10,11,11,12,12,13,13,14,14,17,17,23,23,24,24,25,25,26,26,27,27,28,28,29,29,30,30],"right_children":[2,4,6,8,10,12,14,16,18,20,22,24,26,28,30,-1,-1,32,-1,-1,-1,-1,-1,34,36,38,40,42,44,46,48,-1,-1,-1,-1,-1,-1,-1,-1,-1,-1,-1,-1,-1,-1,-1,-1,-1,-1],"split_conditions":[-7.192829E-2,-1.6652534E-2,-9.815175E-2,-5.9007537E-2,-6.722014E-2,8.099977E-2,9.327477E-3,4.7666556E-1,6.874236E-2,2.5976416E-2,-1.0016214E-2,3.725044E-2,1.6212568E-1,-4.6118688E-2,1.5117218E-1,6.025457E-2,1.619982E-2,1.2077409E-1,4.1317932E-2,6.664853E-2,1.6116686E-2,3.6825325E-2,-2.0315528E-2,6.269929E-2,-1.2028303E-1,-9.003402E-2,3.152483E-2,-1.0365026E-1,-4.5825507E-2,-4.8162233E-2,3.9078265E-1,-7.7533804E-2,3.7316173E-2,4.410782E-2,-1.9995904E-2,4.3746103E-2,-6.883918E-2,-3.2545183E-2,4.5232873E-2,2.743192E-2,6.839888E-2,1.9689577E-2,-7.6601885E-2,2.2398656E-2,-7.5120375E-2,8.676951E-3,-7.0514396E-2,5.6931037E-2,1.130422E-3],"split_indices":[15,1,4,0,4,8,1,16,10,5,0,12,2,7,2,0,0,8,0,0,0,0,0,0,8,7,12,0,4,5,28,0,0,0,0,0,0,0,0,0,0,0,0,0,0,0,0,0,0],"split_type":[0,0,0,0,0,0,0,0,0,0,0,0,0,0,0,0,0,0,0,0,0,0,0,0,0,0,0,0,0,0,0,0,0,0,0,0,0,0,0,0,0,0,0,0,0,0,0,0,0],"sum_hessian":[1.6339178E2,5.7480797E1,1.0591099E2,1.5516028E1,4.1964767E1,5.0493397E1,5.5417595E1,6.690655E0,8.825374E0,3.943539E1,2.5293791E0,3.3293976E1,1.7199417E1,4.4868748E1,1.0548846E1,5.5855412E0,1.105114E0,6.19256E0,2.632813E0,3.838681E1,1.0485767E0,1.0544841E0,1.4748951E0,1.4938614E1,1.8355364E1,4.622983E0,1.2576435E1,3.632279E1,8.545959E0,6.54203E0,4.006816E0,5.13255E0,1.0600108E0,9.879856E0,5.0587583E0,1.5012486E0,1.6854115E1,3.090117E0,1.5328659E0,2.522742E0,1.0053693E1,1.1558001E0,3.516699E1,4.5961776E0,3.949782E0,3.8247914E0,2.7172384E0,2.8345435E0,1.1722726E0],"tree_param":{"num_deleted":"0","num_feature":"32","num_nodes":"49","size_leaf_vector":"1"}},{"base_weights":[9.145227E-3,6.9872457E-1,-7.294791E-1,1.022314E0,-5.488974E-1,-1.0150027E0,5.438007E-1,5.322223E-1,1.2339303E0,3.1424645E-1,-1.3321319E0,-1.4478538E0,-5.339903E-1,-1.4154018E-1,6.1049324E-2,1.0606555E0,-1.9865714E-1,1.2668278E0,1.4984679E-2,-4.5564618E-2,6.9961566E-1,-7.6168045E-2,-4.7875973E-3,-1.4565006E-2,-1.5085832E0,-1.0283653E0,6.406975E-1,-6.626649E-1,5.512443E-1,-4.9691712E-3,5.8628183E-2,5.2012652E-2,-3.8832586E-2,6.477629E-2,1.909214E-2,-6.4928792E-3,6.209227E-2,-7.870179E-2,-1.5906138E-2,-2.5243798E-2,-7.6014146E-2,-2.9383287E-2,4.7612287E-2,-2.2315558E-3,-6.1916478E-2,-1.6436474E-4,4.5860413E-2],"categories":[],"categories_nodes":[],"categories_segments":[],"categories_sizes":[],"default_left":[0,0,0,0,0,0,0,0,0,0,0,0,0,0,0,0,0,0,0,0,0,0,0,0,0,0,0,0,0,0,0,0,0,0,0,0,0,0,0,0,0,0,0,0,0,0,0],"id":10,"left_children":[1,3,5,7,9,11,13,15,17,19,21,23,25,27,-1,29,31,33,-1,-1,35,-1,-1,-1,37,39,41,43,45,-1,-1,-1,-1,-1,-1,-1,-1,-1,-1,-1,-1,-1,-1,-1,-1,-1,-1],"loss_changes":[8.527043E1,3.5512775E1,2.9940865E1,6.5091095E0,1.2912308E1,1.3047653E1,7.347007E0,8.937508E0,1.080162E0,5.17193E0,2.1900005E0,1.9735336E0,1.983783E1,3.462523E0,0E0,1.839427E0,8.200559E0,6.627426E-1,0E0,0E0,3.7008462E0,0E0,0E0,0E0,2.0239563E0,5.316736E0,4.5389295E0,1.8482125E0,8.611995E-1,0E0,0E0,0E0,0E0,0E0,0E0,0E0,0E0,0E0,0E0,0E0,0E0,0E0,0E0,0E0,0E0,0E0,0E0],"parents":[2147483647,0,0,1,1,2,2,3,3,4,4,5,5,6,6,7,7,8,8,9,9,10,10,11,11,12,12,13,13,15,15,16,16,17,17,20,20,24,24,25,25,26,26,27,27,28,28],"right_children":[2,4,6,8,10,12,14,16,18,20,22,24,26,28,-1,30,32,34,-1,-1,36,-1,-1,-1,38,40,42,44,46,-1,-1,-1,-1,-1,-1,-1,-1,-1,-1,-1,-1,-1,-1,-1,-1,-1,-1],"split_conditions":[-1.1194864E-1,3.526278E-2,1.782168E-2,7.637072E-2,2.8763482E-2,-9.267296E-2,1.5117218E-1,-4.539727E-2,3.8301293E-2,1.2384856E-1,-1.3435493E-1,-7.9715595E-2,1.610671E-1,1.6287611E-1,6.1049324E-2,-3.2290757E-1,-8.196371E-1,-1.1403792E-1,1.4984679E-2,-4.5564618E-2,2.0172873E-1,-7.6168045E-2,-4.7875973E-3,-1.4565006E-2,3.2975525E-3,8.613263E-2,9.181272E-2,-6.185482E-2,-5.5507112E-2,-4.9691712E-3,5.8628183E-2,5.2012652E-2,-3.8832586E-2,6.477629E-2,1.909214E-2,-6.4928792E-3,6.209227E-2,-7.870179E-2,-1.5906138E-2,-2.5243798E-2,-7.6014146E-2,-2.9383287E-2,4.7612287E-2,-2.2315558E-3,-6.1916478E-2,-1.6436474E-4,4.5860413E-2],"split_indices":[4,0,1,8,12,13,2,5,5,6,19,0,2,11,0,21,4,4,0,0,10,0,0,0,1,29,8,5,13,0,0,0,0,0,0,0,0,0,0,0,0,0,0,0,0,0,0],"split_type":[0,0,0,0,0,0,0,0,0,0,0,0,0,0,0,0,0,0,0,0,0,0,0,0,0,0,0,0,0,0,0,0,0,0,0,0,0,0,0,0,0,0,0,0,0,0,0],"sum_hessian":[1.6541286E2,8.557453E1,7.983833E1,6.809394E1,1.7480587E1,6.538015E1,1.44581785E1,2.1595358E1,4.6498585E1,8.600931E0,8.879656E0,3.33549E1,3.2025253E1,7.578947E0,6.879231E0,1.2271636E1,9.323721E0,4.457302E1,1.9255635E0,1.7310803E0,6.8698506E0,7.4891987E0,1.390457E0,1.9532435E0,3.1401655E1,2.262707E1,9.398184E0,4.3501577E0,3.2287896E0,1.0895276E0,1.1182109E1,2.7116456E0,6.612076E0,4.2723705E1,1.8493146E0,3.016257E0,3.8535933E0,2.9459726E1,1.941928E0,1.1943437E1,1.0683632E1,1.7220927E0,7.676091E0,2.6175184E0,1.7326393E0,1.6776803E0,1.5511092E0],"tree_param":{"num_deleted":"0","num_feature":"32","num_nodes":"47","size_leaf_vector":"1"}},{"base_weights":[3.4401316E-2,7.992053E-1,-5.770899E-1,1.1230639E0,-7.803993E-2,-7.814315E-1,7.0024586E-1,1.2032374E0,3.1425864E-1,-1.1478627E0,6.3908553E-1,5.787167E-1,-9.630715E-1,-1.5004436E-2,8.7693065E-1,1.2443756E0,9.435604E-3,7.30774E-1,-3.7688766E-2,-6.7317754E-2,2.9985092E-3,8.27497E-1,-2.6416799E-2,1.0983732E0,-5.252586E-1,4.7374845E-1,-1.1152253E0,-1.3470789E-3,1.0284826E0,4.3547284E-2,6.560786E-2,-7.5450237E-3,5.121229E-2,-2.1266425E-2,5.0291147E-2,1.2182144E-2,6.0268816E-2,2.0328678E-2,-5.3667642E-2,-5.539151E-2,5.2996702E-2,-1.4228155E-2,-6.290751E-2,1.3777176E-2,5.4469496E-2],"categories":[],"categories_nodes":[],"categories_segments":[],"categories_sizes":[],"default_left":[0,0,0,0,0,0,0,0,0,0,0,0,0,0,0,0,0,0,0,0,0,0,0,0,0,0,0,0,0,0,0,0,0,0,0,0,0,0,0,0,0,0,0,0,0],"id":11,"left_children":[1,3,5,7,9,11,13,15,17,19,21,23,25,-1,27,29,-1,31,-1,-1,-1,33,-1,35,37,39,41,-1,43,-1,-1,-1,-1,-1,-1,-1,-1,-1,-1,-1,-1,-1,-1,-1,-1],"loss_changes":[7.609513E1,2.0620922E1,2.4155985E1,3.0490036E0,1.6401705E1,1.9938766E1,2.561123E0,1.7572708E0,3.2733214E0,2.131401E0,3.2678218E0,6.2374086E0,1.5740227E1,0E0,1.5762959E0,1.374054E-2,0E0,1.4251733E0,0E0,0E0,0E0,2.990426E0,0E0,3.4949112E-1,2.394772E0,8.002094E0,7.1472855E0,0E0,1.4499092E-1,0E0,0E0,0E0,0E0,0E0,0E0,0E0,0E0,0E0,0E0,0E0,0E0,0E0,0E0,0E0,0E0],"parents":[2147483647,0,0,1,1,2,2,3,3,4,4,5,5,6,6,7,7,8,8,9,9,10,10,11,11,12,12,14,14,15,15,17,17,21,21,23,23,24,24,25,25,26,26,28,28],"right_children":[2,4,6,8,10,12,14,16,18,20,22,24,26,-1,28,30,-1,32,-1,-1,-1,34,-1,36,38,40,42,-1,44,-1,-1,-1,-1,-1,-1,-1,-1,-1,-1,-1,-1,-1,-1,-1,-1],"split_conditions":[-6.091426E-2,-1.1151657E-1,2.7141327E-2,4.0393997E-2,-3.150654E-2,-7.6600686E-2,1.10947594E-1,3.526278E-2,-7.273896E-2,1.5425152E-1,6.268149E-1,-1.07017934E-1,-9.367327E-2,-1.5004436E-2,1.3606904E-1,1.4672071E-2,9.435604E-3,-7.424114E-2,-3.7688766E-2,-6.7317754E-2,2.9985092E-3,1.47125E-1,-2.6416799E-2,-2.0051806E-1,-1.0365026E-1,1.2384856E-1,-5.0271723E-2,-1.3470789E-3,-1.96223E-1,4.3547284E-2,6.560786E-2,-7.5450237E-3,5.121229E-2,-2.1266425E-2,5.0291147E-2,1.2182144E-2,6.0268816E-2,2.0328678E-2,-5.3667642E-2,-5.539151E-2,5.2996702E-2,-1.4228155E-2,-6.290751E-2,1.3777176E-2,5.4469496E-2],"split_indices":[15,4,1,5,1,0,6,0,0,9,16,4,8,0,11,10,0,9,0,0,0,11,0,1,0,6,15,0,26,0,0,0,0,0,0,0,0,0,0,0,0,0,0,0,0],"split_type":[0,0,0,0,0,0,0,0,0,0,0,0,0,0,0,0,0,0,0,0,0,0,0,0,0,0,0,0,0,0,0,0,0,0,0,0,0,0,0,0,0,0,0,0,0],"sum_hessian":[1.6072466E2,7.127395E1,8.94507E1,5.18514E1,1.9422552E1,7.7449036E1,1.2001665E1,4.6731434E1,5.119965E0,7.5534754E0,1.1869076E1,8.866827E0,6.858221E1,1.6967506E0,1.0304915E1,4.4692627E1,2.0388076E0,3.9106524E0,1.2093126E0,6.3888583E0,1.164617E0,1.0470419E1,1.3986572E0,6.0323777E0,2.834449E0,6.364768E0,6.221744E1,1.5977838E0,8.707131E0,8.993559E0,3.5699066E1,1.0979376E0,2.8127148E0,1.132057E0,9.338362E0,1.0357642E0,4.9966135E0,1.1453717E0,1.6890774E0,1.4804612E0,4.884307E0,9.5727415E0,5.26447E1,1.0650401E0,7.642091E0],"tree_param":{"num_deleted":"0","num_feature":"32","num_nodes":"45","size_leaf_vector":"1"}},{"base_weights":[2.2058332E-2,6.92879E-1,-7.0275843E-1,1.0122554E0,-4.6004632E-1,-9.985521E-1,3.3651826E-1,1.0646329E0,-1.9776737E-2,2.876459E-1,-1.2407421E0,-1.3492306E0,-1.9514352E-1,-5.3837633E-1,1.1845591E0,1.1916207E0,6.4174527E-1,-2.9814525E-2,5.629196E-1,-7.105845E-2,8.350583E-4,-1.9625764E-1,-1.4344513E0,-9.091808E-1,4.3637288E-1,-8.28817E-1,2.8288731E-2,1.6359348E-2,6.2632E-2,1.1083054E-2,6.1105233E-2,-7.7801347E-3,5.862369E-2,-3.2721847E-2,4.2507228E-2,-4.4668805E-2,4.2345308E-2,-7.482321E-2,-4.0066004E-2,-6.519482E-2,3.7180107E-2,4.5072526E-2,-2.1411672E-2,1.8496213E-2,-5.3762894E-2],"categories":[],"categories_nodes":[],"categories_segments":[],"categories_sizes":[],"default_left":[0,0,0,0,0,0,0,0,0,0,0,0,0,0,0,0,0,0,0,0,0,0,0,0,0,0,0,0,0,0,0,0,0,0,0,0,0,0,0,0,0,0,0,0,0],"id":12,"left_children":[1,3,5,7,9,11,13,15,-1,17,19,21,23,25,27,29,31,-1,33,-1,-1,35,37,39,41,43,-1,-1,-1,-1,-1,-1,-1,-1,-1,-1,-1,-1,-1,-1,-1,-1,-1,-1,-1],"loss_changes":[7.858197E1,3.1365948E1,2.4221107E1,5.2897034E0,1.1384199E1,1.6848095E1,1.3964813E1,2.6684036E0,0E0,2.8811965E0,2.163169E0,3.8562012E0,9.245686E0,3.5246863E0,1.4079857E-1,1.148346E0,7.347189E0,0E0,3.5255036E0,0E0,0E0,3.706797E0,3.3421326E-1,7.1897025E0,4.8451843E0,2.7463212E0,0E0,0E0,0E0,0E0,0E0,0E0,0E0,0E0,0E0,0E0,0E0,0E0,0E0,0E0,0E0,0E0,0E0,0E0,0E0],"parents":[2147483647,0,0,1,1,2,2,3,3,4,4,5,5,6,6,7,7,9,9,10,10,11,11,12,12,13,13,14,14,15,15,16,16,18,18,21,21,22,22,23,23,24,24,25,25],"right_children":[2,4,6,8,10,12,14,16,-1,18,20,22,24,26,28,30,32,-1,34,-1,-1,36,38,40,42,44,-1,-1,-1,-1,-1,-1,-1,-1,-1,-1,-1,-1,-1,-1,-1,-1,-1,-1,-1],"split_conditions":[-1.1194864E-1,3.526278E-2,9.327477E-3,8.057929E-2,3.600209E-2,-5.899931E-2,1.5117218E-1,-1.4600916E-1,-1.9776737E-2,1.2384856E-1,1.9940479E-2,-7.9715595E-2,1.498743E-1,1.1413221E-1,-1.7785563E-1,-6.672472E-1,5.519328E-2,-2.9814525E-2,-1.5617624E-1,-7.105845E-2,8.350583E-4,1.57612E-1,-5.0279135E-3,-1.7099112E-2,-5.731827E-1,1.680029E-2,2.8288731E-2,1.6359348E-2,6.2632E-2,1.1083054E-2,6.1105233E-2,-7.7801347E-3,5.862369E-2,-3.2721847E-2,4.2507228E-2,-4.4668805E-2,4.2345308E-2,-7.482321E-2,-4.0066004E-2,-6.519482E-2,3.7180107E-2,4.5072526E-2,-2.1411672E-2,1.8496213E-2,-5.3762894E-2],"split_indices":[4,0,1,15,12,7,2,4,0,6,1,0,2,10,26,22,10,0,3,0,0,2,1,7,25,12,0,0,0,0,0,0,0,0,0,0,0,0,0,0,0,0,0,0,0],"split_type":[0,0,0,0,0,0,0,0,0,0,0,0,0,0,0,0,0,0,0,0,0,0,0,0,0,0,0,0,0,0,0,0,0,0,0,0,0,0,0,0,0,0,0,0,0],"sum_hessian":[1.59616E2,8.291859E1,7.669741E1,6.502717E1,1.7891422E1,5.9735092E1,1.6962315E1,6.29296E1,2.0975657E0,9.461476E0,8.429945E0,4.1111164E1,1.862393E1,8.528701E0,8.433615E0,4.6998672E1,1.5930925E1,1.9698579E0,7.4916186E0,7.258271E0,1.171674E0,3.0568707E0,3.805429E1,8.534518E0,1.0089412E1,6.9499245E0,1.5787761E0,1.0475256E0,7.386089E0,1.6841078E0,4.5314568E1,6.648806E0,9.28212E0,1.1860888E0,6.30553E0,1.9184271E0,1.1384437E0,3.3417576E1,4.636717E0,7.0596347E0,1.4748832E0,6.5327735E0,3.5566378E0,1.0996966E0,5.850228E0],"tree_param":{"num_deleted":"0","num_feature":"32","num_nodes":"45","size_leaf_vector":"1"}},{"base_weights":[-9.386973E-3,8.121286E-1,-5.5206263E-1,1.0723635E0,-6.779414E-2,-7.7050245E-1,5.92191E-1,1.162126E0,1.522933E-1,-8.4526336E-1,5.6534816E-2,8.250952E-1,-9.096305E-1,5.186266E-2,5.922984E-2,-7.443346E-3,1.1972857E0,4.5011826E-2,-5.2511746E-1,-1.2786324E0,3.161402E-2,5.7275068E-2,-8.494432E-3,1.1528675E-1,-1.0877597E0,-7.533285E-1,4.928801E-1,1.3112743E-2,6.068464E-2,6.083508E-3,-4.3543376E-2,-8.712429E-3,-7.254186E-2,3.389394E-2,-4.4353317E-2,-6.2987775E-2,-2.5503162E-2,-5.8775354E-2,3.5243023E-3,4.8626937E-2,-2.2138797E-2],"categories":[],"categories_nodes":[],"categories_segments":[],"categories_sizes":[],"default_left":[0,0,0,0,0,0,0,0,0,0,0,0,0,0,0,0,0,0,0,0,0,0,0,0,0,0,0,0,0,0,0,0,0,0,0,0,0,0,0,0,0],"id":13,"left_children":[1,3,5,7,9,11,13,15,17,19,-1,21,23,25,-1,-1,27,-1,29,31,-1,-1,-1,33,35,37,39,-1,-1,-1,-1,-1,-1,-1,-1,-1,-1,-1,-1,-1,-1],"loss_changes":[6.972355E1,1.4319942E1,2.399434E1,3.7935867E0,1.5064537E1,1.8401096E1,4.951555E0,2.1903763E0,3.2210329E0,7.055537E0,0E0,2.3947E0,1.3563972E1,3.6511421E0,0E0,0E0,3.3559418E-1,0E0,8.8372093E-1,1.2447634E0,0E0,0E0,0E0,7.257248E0,5.5978928E0,1.3572245E0,3.3801847E0,0E0,0E0,0E0,0E0,0E0,0E0,0E0,0E0,0E0,0E0,0E0,0E0,0E0,0E0],"parents":[2147483647,0,0,1,1,2,2,3,3,4,4,5,5,6,6,7,7,8,8,9,9,11,11,12,12,13,13,16,16,18,18,19,19,23,23,24,24,25,25,26,26],"right_children":[2,4,6,8,10,12,14,16,18,20,-1,22,24,26,-1,-1,28,-1,30,32,-1,-1,-1,34,36,38,40,-1,-1,-1,-1,-1,-1,-1,-1,-1,-1,-1,-1,-1,-1],"split_conditions":[-6.5044895E-2,-1.0016214E-2,2.7141327E-2,5.5454407E-2,1.8965739E-3,-1.2028303E-1,1.7832133E-1,-8.1684446E-1,-1.0221507E-2,1.1413221E-1,5.6534816E-2,-4.2161012E-1,-6.380826E-2,2.6790041E-2,5.922984E-2,-7.443346E-3,-3.7612104E-1,4.5011826E-2,6.744711E-2,-2.238508E-2,3.161402E-2,5.7275068E-2,-8.494432E-3,-1.1422075E-2,-6.673912E-2,4.553762E-2,-6.1139427E-2,1.3112743E-2,6.068464E-2,6.083508E-3,-4.3543376E-2,-8.712429E-3,-7.254186E-2,3.389394E-2,-4.4353317E-2,-6.2987775E-2,-2.5503162E-2,-5.8775354E-2,3.5243023E-3,4.8626937E-2,-2.2138797E-2],"split_indices":[15,0,1,5,1,8,6,19,12,10,0,24,0,12,0,0,27,0,5,5,0,0,0,15,7,0,5,0,0,0,0,0,0,0,0,0,0,0,0,0,0],"split_type":[0,0,0,0,0,0,0,0,0,0,0,0,0,0,0,0,0,0,0,0,0,0,0,0,0,0,0,0,0,0,0,0,0,0,0,0,0,0,0,0,0],"sum_hessian":[1.5438951E2,6.121867E1,9.317084E1,4.707705E1,1.414162E1,7.850982E1,1.4661016E1,4.265275E1,4.4243026E0,8.756162E0,5.3854575E0,5.901191E0,7.260863E1,8.236301E0,6.424715E0,1.0295651E0,4.1623184E1,1.9463547E0,2.477948E0,6.874476E0,1.881686E0,4.3493357E0,1.5518556E0,1.0803045E1,6.180558E1,2.6641138E0,5.572188E0,1.0106597E0,4.0612522E1,1.0889566E0,1.3889914E0,1.1987193E0,5.675757E0,7.1267295E0,3.676316E0,4.671625E1,1.5089332E1,1.479176E0,1.1849377E0,3.6576803E0,1.9145076E0],"tree_param":{"num_deleted":"0","num_feature":"32","num_nodes":"41","size_leaf_vector":"1"}},{"base_weights":[-7.0376694E-3,6.2167794E-1,-6.839072E-1,1.5021773E-3,1.1322181E0,-9.2064244E-1,4.650161E-1,-4.7733542E-1,9.84812E-1,1.2030665E0,2.4569643E-1,-1.258585E0,-3.9039004E-1,-1.6951938E-1,5.6440115E-2,3.3164093E-1,-7.672366E-1,-9.44573E-3,1.167703E0,6.2082972E-2,1.5556172E-2,-3.065974E-2,4.5512244E-2,-1.339129E0,-8.740251E-2,-8.7987894E-1,3.5910052E-1,-5.0267544E-2,3.3963388E-1,-4.66443E-2,5.4356556E-2,2.9115751E-2,-5.4150786E-2,6.0959246E-2,1.7008787E-2,-3.4073803E-3,-6.908428E-2,4.197453E-2,-4.4755492E-2,3.6451664E-2,-5.326211E-2,-3.7229765E-2,4.7359444E-2,-1.3255253E-2,4.859744E-2],"categories":[],"categories_nodes":[],"categories_segments":[],"categories_sizes":[],"default_left":[0,0,0,0,0,0,0,0,0,0,0,0,0,0,0,0,0,0,0,0,0,0,0,0,0,0,0,0,0,0,0,0,0,0,0,0,0,0,0,0,0,0,0,0,0],"id":14,"left_children":[1,3,5,7,9,11,13,15,17,19,21,23,25,27,-1,29,31,-1,33,-1,-1,-1,-1,35,37,39,41,-1,43,-1,-1,-1,-1,-1,-1,-1,-1,-1,-1,-1,-1,-1,-1,-1,-1],"loss_changes":[6.581945E1,2.53888E1,2.0684834E1,1.798988E1,2.4668655E0,1.0634407E1,5.830474E0,6.281019E0,2.9064884E0,1.0067863E0,3.1331735E0,3.417614E0,9.714014E0,3.6244514E0,0E0,8.157713E0,8.821291E0,0E0,5.2381516E-2,0E0,0E0,0E0,0E0,1.7983627E0,3.3574498E0,5.484578E0,7.7352223E0,0E0,2.37668E0,0E0,0E0,0E0,0E0,0E0,0E0,0E0,0E0,0E0,0E0,0E0,0E0,0E0,0E0,0E0,0E0],"parents":[2147483647,0,0,1,1,2,2,3,3,4,4,5,5,6,6,7,7,8,8,9,9,10,10,11,11,12,12,13,13,15,15,16,16,18,18,23,23,24,24,25,25,26,26,28,28],"right_children":[2,4,6,8,10,12,14,16,18,20,22,24,26,28,-1,30,32,-1,34,-1,-1,-1,-1,36,38,40,42,-1,44,-1,-1,-1,-1,-1,-1,-1,-1,-1,-1,-1,-1,-1,-1,-1,-1],"split_conditions":[-1.1194864E-1,7.637072E-2,1.782168E-2,3.1198832E-1,-4.48897E-2,-6.92838E-2,1.5117218E-1,-6.1211515E-2,2.4058613E-1,4.1795198E-2,-1.0265544E-1,1.2962759E-1,1.610671E-1,1.5626864E-1,5.6440115E-2,1.261886E-1,-1.0737432E-1,-9.44573E-3,6.561325E-2,6.2082972E-2,1.5556172E-2,-3.065974E-2,4.5512244E-2,2.8187066E-2,9.524743E-2,-8.365935E-1,9.679732E-2,-5.0267544E-2,-5.5507112E-2,-4.66443E-2,5.4356556E-2,2.9115751E-2,-5.4150786E-2,6.0959246E-2,1.7008787E-2,-3.4073803E-3,-6.908428E-2,4.197453E-2,-4.4755492E-2,3.6451664E-2,-5.326211E-2,-3.7229765E-2,4.7359444E-2,-1.3255253E-2,4.859744E-2],"split_indices":[4,8,1,11,15,7,2,15,14,5,13,8,2,11,0,9,8,0,15,0,0,0,0,12,14,24,8,0,13,0,0,0,0,0,0,0,0,0,0,0,0,0,0,0,0],"split_type":[0,0,0,0,0,0,0,0,0,0,0,0,0,0,0,0,0,0,0,0,0,0,0,0,0,0,0,0,0,0,0,0,0,0,0,0,0,0,0,0,0,0,0,0,0],"sum_hessian":[1.5266699E2,7.919118E1,7.347581E1,3.62092E1,4.2981976E1,6.1087452E1,1.2388356E1,2.4697126E1,1.1512076E1,3.9470535E1,3.5114398E0,3.647042E1,2.461703E1,6.7144275E0,5.6739287E0,6.4775066E0,1.821962E1,1.547548E0,9.964528E0,3.7457718E1,2.012819E0,1.5654545E0,1.9459853E0,3.398951E1,2.4809113E0,1.4786237E1,9.830793E0,2.1728687E0,4.5415587E0,2.3347807E0,4.142726E0,3.2947443E0,1.4924876E1,8.935358E0,1.0291703E0,1.1854839E0,3.2804028E1,1.1368998E0,1.3440115E0,1.224536E0,1.3561701E1,3.3248143E0,6.5059786E0,2.6182408E0,1.9233178E0],"tree_param":{"num_deleted":"0","num_feature":"32","num_nodes":"45","size_leaf_vector":"1"}},{"base_weights":[1.6669013E-2,6.512281E-1,-6.4298475E-1,9.6767586E-1,-4.5238587E-1,-1.2107112E0,-1.260872E-1,5.471938E-1,1.1695744E0,2.548103E-1,-1.2113776E0,-1.6636868E-1,-1.2858313E0,-7.6195E-1,6.1344093E-1,9.9077815E-1,-5.243937E-1,1.1994083E0,1.6903719E-2,-3.365182E-1,9.092408E-1,-6.646165E-2,-1.0416253E-2,-4.513172E-2,3.0157937E-2,-1.3262048E0,-4.5194384E-3,4.922122E-2,-9.826152E-1,-3.769878E-1,8.5267025E-1,5.660013E-2,1.6926684E-3,-5.8170017E-2,2.4058E-2,6.0982507E-2,1.2000534E-2,2.7468627E-2,-5.2592635E-2,6.0862165E-2,-4.0111146E-3,-8.971493E-3,-6.8101935E-2,-5.8126878E-2,3.7798576E-2,-5.646751E-2,3.3454176E-2,5.0918497E-2,-1.8775871E-2],"categories":[],"categories_nodes":[],"categories_segments":[],"categories_sizes":[],"default_left":[0,0,0,0,0,0,0,0,0,0,0,0,0,0,0,0,0,0,0,0,0,0,0,0,0,0,0,0,0,0,0,0,0,0,0,0,0,0,0,0,0,0,0,0,0,0,0,0,0],"id":15,"left_children":[1,3,5,7,9,11,13,15,17,19,21,23,25,27,29,31,33,35,-1,37,39,-1,-1,-1,-1,41,-1,-1,43,45,47,-1,-1,-1,-1,-1,-1,-1,-1,-1,-1,-1,-1,-1,-1,-1,-1,-1,-1],"loss_changes":[6.3205784E1,2.7311287E1,2.1577023E1,4.463928E0,9.878447E0,2.545391E0,1.9218164E1,1.0683324E1,5.803032E-1,4.1973195E0,7.6022816E-1,2.5324442E0,1.456604E0,9.401471E0,4.8206353E0,2.0520897E0,5.0022635E0,4.4463348E-1,0E0,4.3879247E0,1.6346159E0,0E0,0E0,0E0,0E0,1.0510101E0,0E0,0E0,7.113617E0,4.2088375E0,3.5573978E0,0E0,0E0,0E0,0E0,0E0,0E0,0E0,0E0,0E0,0E0,0E0,0E0,0E0,0E0,0E0,0E0,0E0,0E0],"parents":[2147483647,0,0,1,1,2,2,3,3,4,4,5,5,6,6,7,7,8,8,9,9,10,10,11,11,12,12,13,13,14,14,15,15,16,16,17,17,19,19,20,20,25,25,28,28,29,29,30,30],"right_children":[2,4,6,8,10,12,14,16,18,20,22,24,26,28,30,32,34,36,-1,38,40,-1,-1,-1,-1,42,-1,-1,44,46,48,-1,-1,-1,-1,-1,-1,-1,-1,-1,-1,-1,-1,-1,-1,-1,-1,-1,-1],"split_conditions":[-1.1194864E-1,3.526278E-2,-9.267296E-2,8.099977E-2,3.600209E-2,-8.134587E-2,1.5117218E-1,-1.751364E-1,-1.1403792E-1,2.5293353E-1,-1.3435493E-1,-8.749395E-2,-6.391546E-2,-7.408537E-2,9.181272E-2,2.5325602E-1,1.0150719E-1,6.744711E-2,1.6903719E-2,6.269929E-2,2.0685935E-1,-6.646165E-2,-1.0416253E-2,-4.513172E-2,3.0157937E-2,-4.2985177E-1,-4.5194384E-3,4.922122E-2,-1.7099112E-2,1.7028278E-1,-3.3316605E-2,5.660013E-2,1.6926684E-3,-5.8170017E-2,2.4058E-2,6.0982507E-2,1.2000534E-2,2.7468627E-2,-5.2592635E-2,6.0862165E-2,-4.0111146E-3,-8.971493E-3,-6.8101935E-2,-5.8126878E-2,3.7798576E-2,-5.646751E-2,3.3454176E-2,5.0918497E-2,-1.8775871E-2],"split_indices":[4,0,13,8,12,15,2,4,4,14,19,4,3,5,8,21,10,5,0,0,2,0,0,0,0,21,0,0,7,11,4,0,0,0,0,0,0,0,0,0,0,0,0,0,0,0,0,0,0],"split_type":[0,0,0,0,0,0,0,0,0,0,0,0,0,0,0,0,0,0,0,0,0,0,0,0,0,0,0,0,0,0,0,0,0,0,0,0,0,0,0,0,0,0,0,0,0,0,0,0,0],"sum_hessian":[1.4899681E2,7.594943E1,7.304737E1,5.912052E1,1.6828909E1,3.417239E1,3.8874985E1,2.0382122E1,3.87384E1,9.055582E0,7.773328E0,2.5088143E0,3.1663576E1,2.0886223E1,1.7988762E1,1.4468349E1,5.913772E0,3.6969482E1,1.768918E0,5.012335E0,4.0432467E0,6.6650214E0,1.1083066E0,1.1937194E0,1.315095E0,3.0523335E1,1.1402411E0,1.9547662E0,1.8931458E1,3.3876736E0,1.4601088E1,1.2448257E1,2.0200922E0,3.5199492E0,2.393823E0,3.5939938E1,1.0295458E0,2.3428671E0,2.6694674E0,2.9078715E0,1.1353755E0,1.1069036E0,2.9416431E1,1.7456278E1,1.4751787E0,1.9241571E0,1.4635165E0,1.3015897E1,1.5851914E0],"tree_param":{"num_deleted":"0","num_feature":"32","num_nodes":"49","size_leaf_vector":"1"}},{"base_weights":[-2.0711241E-2,8.541202E-1,-4.821988E-1,1.1711068E0,2.1801001E-1,4.668073E-1,-6.765667E-1,5.9384372E-2,1.6496606E-2,6.6416925E-1,-8.307044E-1,9.649594E-1,-3.8925412E-1,6.7933935E-1,-8.4078616E-1,-2.8976938E-2,9.0172654E-1,-2.3781087E-3,-6.0491305E-2,1.2893664E-2,5.3786434E-2,3.5096336E-2,-9.045993E-1,-3.8906273E-2,1.104261E0,-1.0116007E0,1.7309435E-1,5.309279E-2,-1.9565454E-2,-5.8388617E-2,4.1995244E-3,5.90329E-2,1.52005E-2,-6.288203E-2,-1.9727547E-2,2.7286043E-2,-3.525908E-2],"categories":[],"categories_nodes":[],"categories_segments":[],"categories_sizes":[],"default_left":[0,0,0,0,0,0,0,0,0,0,0,0,0,0,0,0,0,0,0,0,0,0,0,0,0,0,0,0,0,0,0,0,0,0,0,0,0],"id":16,"left_children":[1,3,5,7,9,11,13,-1,-1,15,17,19,21,23,25,-1,27,-1,-1,-1,-1,-1,29,-1,31,33,35,-1,-1,-1,-1,-1,-1,-1,-1,-1,-1],"loss_changes":[5.9901752E1,1.0078266E1,1.822744E1,8.19931E-2,9.101606E0,7.667495E0,1.8608433E1,0E0,0E0,4.4742646E0,1.693636E0,5.917187E-1,4.5727205E0,6.6214075E0,1.2765972E1,0E0,2.8217316E0,0E0,0E0,0E0,0E0,0E0,1.4491849E0,0E0,1.06762886E-1,8.972023E0,4.0948625E0,0E0,0E0,0E0,0E0,0E0,0E0,0E0,0E0,0E0,0E0],"parents":[2147483647,0,0,1,1,2,2,3,3,4,4,5,5,6,6,9,9,10,10,11,11,12,12,13,13,14,14,16,16,22,22,24,24,25,25,26,26],"right_children":[2,4,6,8,10,12,14,-1,-1,16,18,20,22,24,26,-1,28,-1,-1,-1,-1,-1,30,-1,32,34,36,-1,-1,-1,-1,-1,-1,-1,-1,-1,-1],"split_conditions":[-7.192829E-2,-1.23099E-2,-6.310372E-2,1.7024557E-1,-1.0016214E-2,-2.1962136E-2,-9.367327E-2,5.9384372E-2,1.6496606E-2,-8.1955194E-2,-9.299666E-2,1.5839158E-1,-3.7160307E-2,9.1736235E-2,2.2281563E-2,-2.8976938E-2,1.0516407E-1,-2.3781087E-3,-6.0491305E-2,1.2893664E-2,5.3786434E-2,3.5096336E-2,-1.2418456E-2,-3.8906273E-2,5.153552E-1,-6.879448E-2,-7.7952646E-2,5.309279E-2,-1.9565454E-2,-5.8388617E-2,4.1995244E-3,5.90329E-2,1.52005E-2,-6.288203E-2,-1.9727547E-2,2.7286043E-2,-3.525908E-2],"split_indices":[15,5,0,18,0,15,8,0,0,17,15,6,5,6,1,0,12,0,0,0,0,0,1,0,26,7,4,0,0,0,0,0,0,0,0,0,0],"split_type":[0,0,0,0,0,0,0,0,0,0,0,0,0,0,0,0,0,0,0,0,0,0,0,0,0,0,0,0,0,0,0,0,0,0,0,0,0],"sum_hessian":[1.4635295E2,5.024806E1,9.610489E1,3.2974934E1,1.7273123E1,1.6099077E1,8.000581E1,3.1933546E1,1.0413867E0,1.2375038E1,4.898085E0,1.0096562E1,6.002515E0,8.304176E0,7.170164E1,1.7537704E0,1.0621268E1,1.9648328E0,2.9332523E0,1.8182082E0,8.278354E0,1.8093611E0,4.193154E0,1.6869122E0,6.6172643E0,6.1365303E1,1.0336336E1,9.609961E0,1.0113071E0,3.1684332E0,1.0247207E0,5.6066585E0,1.0106062E0,4.3129776E1,1.8235525E1,7.5231366E0,2.8131993E0],"tree_param":{"num_deleted":"0","num_feature":"32","num_nodes":"37","size_leaf_vector":"1"}},{"base_weights":[-3.011945E-2,7.571796E-1,-5.2331597E-1,2.6990262E-1,1.1817038E0,-6.929817E-1,4.734469E-1,8.22617E-1,-5.921467E-1,1.5686281E-2,6.0331892E-2,5.66247E-1,-8.364805E-1,-3.4183178E-2,5.499637E-2,-8.022041E-3,9.1745514E-1,-8.717039E-1,4.0701862E-2,-3.3973556E-2,9.1864634E-1,4.77714E-2,-9.101466E-1,-4.140305E-1,4.9091786E-1,1.065804E-2,5.25617E-2,3.5639167E-2,-5.7703234E-2,5.4225214E-2,1.23278145E-2,-8.407662E-3,-5.3880285E-2,-5.4992337E-2,5.600073E-3,-1.6112283E-2,4.534677E-2],"categories":[],"categories_nodes":[],"categories_segments":[],"categories_sizes":[],"default_left":[0,0,0,0,0,0,0,0,0,0,0,0,0,0,0,0,0,0,0,0,0,0,0,0,0,0,0,0,0,0,0,0,0,0,0,0,0],"id":17,"left_children":[1,3,5,7,9,11,13,15,17,-1,-1,19,21,23,-1,-1,25,27,-1,-1,29,-1,31,33,35,-1,-1,-1,-1,-1,-1,-1,-1,-1,-1,-1,-1],"loss_changes":[5.7043472E1,1.1389156E1,1.5597425E1,1.3660383E1,2.6965714E-1,1.4488857E1,4.4031587E0,1.7568407E0,5.1842766E0,0E0,0E0,4.369157E0,1.0113842E1,1.9091793E0,0E0,0E0,1.2735224E0,5.2867317E0,0E0,0E0,5.212579E-1,0E0,8.240398E0,2.109277E0,1.6614882E0,0E0,0E0,0E0,0E0,0E0,0E0,0E0,0E0,0E0,0E0,0E0,0E0],"parents":[2147483647,0,0,1,1,2,2,3,3,4,4,5,5,6,6,7,7,8,8,11,11,12,12,13,13,16,16,17,17,20,20,22,22,23,23,24,24],"right_children":[2,4,6,8,10,12,14,16,18,-1,-1,20,22,24,-1,-1,26,28,-1,-1,30,-1,32,34,36,-1,-1,-1,-1,-1,-1,-1,-1,-1,-1,-1,-1],"split_conditions":[-6.5044895E-2,4.7512106E-3,2.7141327E-2,-2.3392405E-2,-7.999532E-1,-9.367327E-2,1.7832133E-1,1.1243501E-1,1.1745189E-1,1.5686281E-2,6.0331892E-2,1.2384856E-1,-1.091177E-1,1.01347834E-1,5.499637E-2,-8.022041E-3,-1.718797E-1,-2.4659923E-1,4.0701862E-2,-3.3973556E-2,-4.8149213E-1,4.77714E-2,-5.0271723E-2,8.784378E-2,-5.3768057E-1,1.065804E-2,5.25617E-2,3.5639167E-2,-5.7703234E-2,5.4225214E-2,1.23278145E-2,-8.407662E-3,-5.3880285E-2,-5.4992337E-2,5.600073E-3,-1.6112283E-2,4.534677E-2],"split_indices":[15,1,1,0,19,8,6,28,8,0,0,6,0,8,0,0,3,3,0,0,25,0,15,27,19,0,0,0,0,0,0,0,0,0,0,0,0],"split_type":[0,0,0,0,0,0,0,0,0,0,0,0,0,0,0,0,0,0,0,0,0,0,0,0,0,0,0,0,0,0,0,0,0,0,0,0,0],"sum_hessian":[1.4488777E2,5.5598915E1,8.9288864E1,2.664782E1,2.8951097E1,7.656157E1,1.2727294E1,1.6265026E1,1.0382794E1,1.1877159E0,2.776338E1,7.530858E0,6.903071E1,7.5527897E0,5.174504E0,1.3702087E0,1.4894816E1,8.978008E0,1.4047855E0,1.4559616E0,6.074897E0,2.2531724E0,6.6777534E1,4.505283E0,3.047507E0,2.7915845E0,1.2103232E1,1.1273628E0,7.8506455E0,4.3802996E0,1.6945972E0,1.2664897E1,5.411264E1,1.4821229E0,3.0231597E0,1.1077198E0,1.9397871E0],"tree_param":{"num_deleted":"0","num_feature":"32","num_nodes":"37","size_leaf_vector":"1"}},{"base_weights":[2.9929958E-2,5.7493174E-1,-6.1344457E-1,8.83035E-3,1.0330349E0,-8.8760906E-1,3.1659183E-1,-5.2373874E-1,8.1217194E-1,-5.34833E-3,1.0646548E0,-1.2859956E0,-4.5337063E-1,-2.8851607E-1,9.29383E-1,-8.585242E-1,1.5958428E-1,-1.3048805E-2,9.4388944E-1,1.1107339E0,2.0487289E-1,-1.6694164E-2,-6.562702E-2,-8.602318E-1,5.398811E-1,1.551929E-1,-5.6983095E-2,-1.06057865E-4,1.0794938E0,-5.500994E-2,1.4455921E-2,-4.916542E-2,4.5583446E-2,1.2410639E-3,5.5649906E-2,1.37074245E-2,5.677524E-2,3.608206E-2,-2.1855073E-2,2.0886024E-2,-4.841758E-2,-2.9987514E-2,4.318593E-2,2.80748E-2,-4.602266E-2,1.3514404E-2,5.8761843E-2],"categories":[],"categories_nodes":[],"categories_segments":[],"categories_sizes":[],"default_left":[0,0,0,0,0,0,0,0,0,0,0,0,0,0,0,0,0,0,0,0,0,0,0,0,0,0,0,0,0,0,0,0,0,0,0,0,0,0,0,0,0,0,0,0,0,0,0],"id":18,"left_children":[1,3,5,7,9,11,13,15,17,-1,19,21,23,25,27,29,31,-1,33,35,37,-1,-1,39,41,43,-1,-1,45,-1,-1,-1,-1,-1,-1,-1,-1,-1,-1,-1,-1,-1,-1,-1,-1,-1,-1],"loss_changes":[5.0492138E1,2.0201113E1,1.7125774E1,1.5769947E1,1.6662712E0,8.288933E0,6.1185985E0,5.210032E0,2.322816E0,0E0,1.436203E0,2.2397995E-1,1.100484E1,3.4631734E0,1.131546E0,4.489601E0,7.8891277E0,0E0,2.0396118E0,5.1000595E-1,1.4308974E0,0E0,0E0,3.0144138E0,3.541986E0,3.4013057E0,0E0,0E0,2.213583E-1,0E0,0E0,0E0,0E0,0E0,0E0,0E0,0E0,0E0,0E0,0E0,0E0,0E0,0E0,0E0,0E0,0E0,0E0],"parents":[2147483647,0,0,1,1,2,2,3,3,4,4,5,5,6,6,7,7,8,8,10,10,11,11,12,12,13,13,14,14,15,15,16,16,18,18,19,19,20,20,23,23,24,24,25,25,28,28],"right_children":[2,4,6,8,10,12,14,16,18,-1,20,22,24,26,28,30,32,-1,34,36,38,-1,-1,40,42,44,-1,-1,46,-1,-1,-1,-1,-1,-1,-1,-1,-1,-1,-1,-1,-1,-1,-1,-1,-1,-1],"split_conditions":[-1.0598686E-1,7.637072E-2,9.327477E-3,2.734319E-1,1.3533284E-1,-9.175854E-2,1.5117218E-1,1.9218215E-1,-9.63632E-2,-5.34833E-3,4.1795198E-2,-5.4818326E-1,1.610671E-1,1.1062576E-1,1.293443E-1,2.2281563E-2,1.5818308E-1,-1.3048805E-2,1.618472E-1,-2.9341823E-1,-7.462694E-2,-1.6694164E-2,-6.562702E-2,-8.365935E-1,9.181272E-2,2.600749E-1,-5.6983095E-2,-1.06057865E-4,-1.6467085E-1,-5.500994E-2,1.4455921E-2,-4.916542E-2,4.5583446E-2,1.2410639E-3,5.5649906E-2,1.37074245E-2,5.677524E-2,3.608206E-2,-2.1855073E-2,2.0886024E-2,-4.841758E-2,-2.9987514E-2,4.318593E-2,2.80748E-2,-4.602266E-2,1.3514404E-2,5.8761843E-2],"split_indices":[4,8,1,11,2,13,2,6,27,0,5,16,2,29,9,1,9,0,6,26,0,0,0,24,8,27,0,0,23,0,0,0,0,0,0,0,0,0,0,0,0,0,0,0,0,0,0],"split_type":[0,0,0,0,0,0,0,0,0,0,0,0,0,0,0,0,0,0,0,0,0,0,0,0,0,0,0,0,0,0,0,0,0,0,0,0,0,0,0,0,0,0,0,0,0,0,0],"sum_hessian":[1.4199397E2,7.693165E1,6.5062325E1,3.4865658E1,4.206599E1,5.02846E1,1.4777727E1,2.1175545E1,1.3690114E1,1.0709736E0,4.0995018E1,2.520192E1,2.508268E1,7.7017345E0,7.075992E0,1.4040288E1,7.1352572E0,1.3893411E0,1.2300773E1,3.8632664E1,2.3623526E0,1.0518572E0,2.4150063E1,1.7888868E1,7.193812E0,5.6000504E0,2.1016843E0,1.118857E0,5.957135E0,1.16321E1,2.4081872E0,2.7098444E0,4.425413E0,2.089823E0,1.021095E1,1.4580317E0,3.7174633E1,1.2400535E0,1.122299E0,1.172046E0,1.6716822E1,1.4033186E0,5.7904935E0,4.4116373E0,1.1884129E0,1.0347385E0,4.9223967E0],"tree_param":{"num_deleted":"0","num_feature":"32","num_nodes":"47","size_leaf_vector":"1"}},{"base_weights":[1.8091636E-2,7.5768006E-1,-4.5164332E-1,1.0364375E0,-2.0306587E-2,-9.828124E-1,-1.0290033E-1,6.0627437E-1,1.1520889E0,-6.8680197E-1,8.3618486E-1,1.0909667E-1,-1.2095412E0,1.0843254E-1,-1.1417437E0,-1.3889153E-1,5.40258E-2,5.8950294E-2,1.2782005E-2,-9.941863E-1,3.8412657E-2,-9.980383E-3,5.4927338E-2,-7.26175E-1,4.9989693E-2,3.8891863E-3,-1.2817155E0,-2.8687078E-1,6.9756293E-1,-6.4797014E-2,-1.5884854E-2,-3.3478975E-2,3.6973286E-2,-5.759061E-2,-1.2895361E-2,-5.5588394E-2,8.330205E-3,-6.745588E-2,-2.8052125E-2,-3.528704E-2,2.5174757E-2,4.8207633E-2,-2.2279195E-2],"categories":[],"categories_nodes":[],"categories_segments":[],"categories_sizes":[],"default_left":[0,0,0,0,0,0,0,0,0,0,0,0,0,0,0,0,0,0,0,0,0,0,0,0,0,0,0,0,0,0,0,0,0,0,0,0,0,0,0,0,0,0,0],"id":19,"left_children":[1,3,5,7,9,11,13,15,17,19,21,23,25,27,29,31,-1,-1,-1,33,-1,-1,-1,35,-1,-1,37,39,41,-1,-1,-1,-1,-1,-1,-1,-1,-1,-1,-1,-1,-1,-1],"loss_changes":[4.856646E1,1.1795191E1,1.5740572E1,1.2909393E0,9.3095455E0,8.494186E0,1.17027855E1,3.8903282E0,4.3226624E-1,4.8583107E0,2.1616526E0,5.729284E0,2.7061043E0,1.0619229E1,7.321625E-1,2.8268836E0,0E0,0E0,0E0,6.3068676E-1,0E0,0E0,0E0,1.5793536E0,0E0,0E0,5.361786E-1,9.453758E0,5.993346E0,0E0,0E0,0E0,0E0,0E0,0E0,0E0,0E0,0E0,0E0,0E0,0E0,0E0,0E0],"parents":[2147483647,0,0,1,1,2,2,3,3,4,4,5,5,6,6,7,7,8,8,9,9,10,10,11,11,12,12,13,13,14,14,15,15,19,19,23,23,26,26,27,27,28,28],"right_children":[2,4,6,8,10,12,14,16,18,20,22,24,26,28,30,32,-1,-1,-1,34,-1,-1,-1,36,-1,-1,38,40,42,-1,-1,-1,-1,-1,-1,-1,-1,-1,-1,-1,-1,-1,-1],"split_conditions":[-6.5044895E-2,-1.1151657E-1,5.8860056E-2,7.637072E-2,1.0786782E-1,-6.534071E-2,-4.7033425E-2,1.261886E-1,1.1711858E-1,1.8965739E-3,2.2706103E-2,1.610671E-1,2.244759E-2,1.8223041E-1,-2.0385988E-1,6.5767944E-1,5.40258E-2,5.8950294E-2,1.2782005E-2,1.0203966E-1,3.8412657E-2,-9.980383E-3,5.4927338E-2,-1.8581925E-2,4.9989693E-2,3.8891863E-3,1.1377795E-1,8.9971595E-2,1.2542382E-3,-6.4797014E-2,-1.5884854E-2,-3.3478975E-2,3.6973286E-2,-5.759061E-2,-1.2895361E-2,-5.5588394E-2,8.330205E-3,-6.745588E-2,-2.8052125E-2,-3.528704E-2,2.5174757E-2,4.8207633E-2,-2.2279195E-2],"split_indices":[15,4,10,8,8,0,4,9,12,1,10,2,12,6,18,2,0,0,0,8,0,0,0,1,0,0,8,8,5,0,0,0,0,0,0,0,0,0,0,0,0,0,0],"split_type":[0,0,0,0,0,0,0,0,0,0,0,0,0,0,0,0,0,0,0,0,0,0,0,0,0,0,0,0,0,0,0,0,0,0,0,0,0,0,0,0,0,0,0],"sum_hessian":[1.3781058E2,5.329137E1,8.45192E1,3.898912E1,1.430225E1,3.2777603E1,5.17416E1,9.583968E0,2.9405151E1,8.154662E0,6.1475873E0,5.725043E0,2.7052563E1,4.3739296E1,8.002303E0,4.0023265E0,5.581642E0,2.8241953E1,1.163197E0,6.9939156E0,1.1607472E0,1.2907916E0,4.8567953E0,3.0497663E0,2.6752765E0,1.4320635E0,2.5620499E1,2.6482645E1,1.725665E1,6.2585435E0,1.7437601E0,2.6431017E0,1.3592246E0,5.2957983E0,1.698117E0,1.9585685E0,1.0911977E0,2.2631796E1,2.9887035E0,1.7379242E1,9.103402E0,1.4120284E1,3.136367E0],"tree_param":{"num_deleted":"0","num_feature":"32","num_nodes":"43","size_leaf_vector":"1"}},{"base_weights":[-1.6233139E-2,5.11164E-1,-6.3512725E-1,-3.613648E-2,9.7065556E-1,-9.0500975E-1,3.1299254E-1,-6.062592E-1,6.377582E-1,-3.4758415E-2,1.0374092E0,-1.13965E0,-1.4171082E-1,-2.3332563E-1,8.824577E-1,4.269822E-2,-1.0963677E0,9.7397614E-1,-3.2957378E-1,-4.6049286E-2,3.815375E-2,4.7558392E-3,1.0720748E0,8.839591E-3,-1.1928164E0,4.666796E-1,-9.1899294E-1,-7.8548217E-1,7.182298E-1,3.5528414E-4,1.0336139E0,-1.4982532E-2,5.0080664E-2,-6.224628E-2,1.1187526E-3,-6.849094E-3,5.8597147E-2,-5.279116E-2,3.1168789E-2,9.802522E-3,5.4892194E-2,-6.2102426E-2,-2.0811452E-2,-1.913671E-2,5.5870533E-2,-6.2059343E-2,1.6680615E-2,1.8892584E-2,-5.706924E-2,2.649916E-3,4.8409034E-2,5.6482762E-2,1.3802367E-2],"categories":[],"categories_nodes":[],"categories_segments":[],"categories_sizes":[],"default_left":[0,0,0,0,0,0,0,0,0,0,0,0,0,0,0,0,0,0,0,0,0,0,0,0,0,0,0,0,0,0,0,0,0,0,0,0,0,0,0,0,0,0,0,0,0,0,0,0,0,0,0,0,0],"id":20,"left_children":[1,3,5,7,9,11,13,15,17,19,21,23,25,27,29,31,33,35,37,-1,-1,-1,39,-1,41,43,45,47,49,-1,51,-1,-1,-1,-1,-1,-1,-1,-1,-1,-1,-1,-1,-1,-1,-1,-1,-1,-1,-1,-1,-1,-1],"loss_changes":[4.502243E1,1.8767717E1,1.651913E1,1.3818581E1,2.7561684E0,8.730579E0,4.811045E0,6.2334156E0,5.69044E0,3.1710892E0,1.1405525E0,2.858818E0,6.489258E0,4.948995E0,9.792938E-1,3.3636017E0,1.8758631E0,2.9105968E0,4.122288E0,0E0,0E0,0E0,6.107788E-1,0E0,8.7828064E-1,4.767798E0,2.8208675E0,2.8155963E0,5.4508877E-1,0E0,1.503048E-1,0E0,0E0,0E0,0E0,0E0,0E0,0E0,0E0,0E0,0E0,0E0,0E0,0E0,0E0,0E0,0E0,0E0,0E0,0E0,0E0,0E0,0E0],"parents":[2147483647,0,0,1,1,2,2,3,3,4,4,5,5,6,6,7,7,8,8,9,9,10,10,11,11,12,12,13,13,14,14,15,15,16,16,17,17,18,18,22,22,24,24,25,25,26,26,27,27,28,28,30,30],"right_children":[2,4,6,8,10,12,14,16,18,20,22,24,26,28,30,32,34,36,38,-1,-1,-1,40,-1,42,44,46,48,50,-1,52,-1,-1,-1,-1,-1,-1,-1,-1,-1,-1,-1,-1,-1,-1,-1,-1,-1,-1,-1,-1,-1,-1],"split_conditions":[-1.0598686E-1,7.637072E-2,9.327477E-3,1.9218215E-1,1.1633513E-1,-4.6118688E-2,1.5117218E-1,3.4933463E-2,-1.879833E-1,-9.6656844E-2,-4.61645E-2,-1.0166733E-1,-4.5825507E-2,1.10364854E-1,1.3273436E-1,2.730188E-1,3.3178955E-2,-9.6179515E-2,1.5818308E-1,-4.6049286E-2,3.815375E-2,4.7558392E-3,-2.9341823E-1,8.839591E-3,1.682044E-1,1.627694E-1,1.1361274E-1,-6.310372E-2,2.8763482E-2,3.5528414E-4,1.6439147E-3,-1.4982532E-2,5.0080664E-2,-6.224628E-2,1.1187526E-3,-6.849094E-3,5.8597147E-2,-5.279116E-2,3.1168789E-2,9.802522E-3,5.4892194E-2,-6.2102426E-2,-2.0811452E-2,-1.913671E-2,5.5870533E-2,-6.2059343E-2,1.6680615E-2,1.8892584E-2,-5.706924E-2,2.649916E-3,4.8409034E-2,5.6482762E-2,1.3802367E-2],"split_indices":[4,8,1,6,6,7,2,12,4,13,10,0,4,14,9,14,1,17,9,0,0,0,26,0,9,11,8,0,12,0,0,0,0,0,0,0,0,0,0,0,0,0,0,0,0,0,0,0,0,0,0,0,0],"split_type":[0,0,0,0,0,0,0,0,0,0,0,0,0,0,0,0,0,0,0,0,0,0,0,0,0,0,0,0,0,0,0,0,0,0,0,0,0,0,0,0,0,0,0,0,0,0,0,0,0,0,0,0,0],"sum_hessian":[1.3594046E2,7.348959E1,6.2450867E1,3.396054E1,3.9529057E1,4.864852E1,1.3802344E1,1.8451078E1,1.5509463E1,2.490937E0,3.7038116E1,3.683292E1,1.1815602E1,7.345596E0,6.456748E0,8.331775E0,1.0119304E1,1.150409E1,4.005373E0,1.1069674E0,1.3839695E0,1.4470748E0,3.559104E1,1.3395404E0,3.549338E1,6.852022E0,4.96358E0,4.758767E0,2.5868287E0,1.1049492E0,5.351799E0,6.6464067E0,1.6853684E0,8.833511E0,1.285792E0,1.7865146E0,9.717575E0,2.2117956E0,1.7935774E0,1.2630029E0,3.432804E1,3.281377E1,2.6796117E0,3.1509094E0,3.7011127E0,3.955314E0,1.0082662E0,1.1003608E0,3.6584063E0,1.0375302E0,1.5492986E0,4.3137546E0,1.0380446E0],"tree_param":{"num_deleted":"0","num_feature":"32","num_nodes":"53","size_leaf_vector":"1"}},{"base_weights":[1.6626932E-2,6.82448E-1,-4.4492164E-1,1.0019377E0,-1.3118286E-1,6.559524E-1,-5.642865E-1,5.283688E-4,1.0364132E0,-9.319236E-1,4.6516892E-1,1.3333859E-1,5.0927054E-2,-9.0629613E-1,-9.75064E-2,6.0824E-1,5.717368E-2,-5.9469398E-2,1.6343888E-2,-4.069654E-2,7.240958E-1,3.8012084E-2,-2.3526836E-2,-1.486312E-1,-1.0647324E0,-5.299143E-1,8.4262383E-1,-2.2368025E-2,4.505397E-2,-1.9897154E-2,4.6369072E-2,1.2463742E-2,-5.04237E-2,-8.121323E-3,-6.0119744E-2,4.200196E-2,-3.409077E-2,5.271512E-2,-1.3923674E-2],"categories":[],"categories_nodes":[],"categories_segments":[],"categories_sizes":[],"default_left":[0,0,0,0,0,0,0,0,0,0,0,0,0,0,0,0,0,0,0,0,0,0,0,0,0,0,0,0,0,0,0,0,0,0,0,0,0,0,0],"id":21,"left_children":[1,3,5,7,9,11,13,-1,15,17,19,21,-1,23,25,27,-1,-1,-1,-1,29,-1,-1,31,33,35,37,-1,-1,-1,-1,-1,-1,-1,-1,-1,-1,-1,-1],"loss_changes":[4.0279903E1,1.4078058E1,1.0545299E1,1.3096924E0,8.079445E0,1.3871546E0,1.1149904E1,0E0,1.0157776E0,2.7117667E0,3.8496637E0,2.0395932E0,0E0,4.704323E0,1.3003382E1,3.371791E0,0E0,0E0,0E0,0E0,2.3571267E0,0E0,0E0,3.045909E0,3.9459343E0,5.103313E0,2.694562E0,0E0,0E0,0E0,0E0,0E0,0E0,0E0,0E0,0E0,0E0,0E0,0E0],"parents":[2147483647,0,0,1,1,2,2,3,3,4,4,5,5,6,6,8,8,9,9,10,10,11,11,13,13,14,14,15,15,20,20,23,23,24,24,25,25,26,26],"right_children":[2,4,6,8,10,12,14,-1,16,18,20,22,-1,24,26,28,-1,-1,-1,-1,30,-1,-1,32,34,36,38,-1,-1,-1,-1,-1,-1,-1,-1,-1,-1,-1,-1],"split_conditions":[-6.1211515E-2,-1.1151657E-1,-1.0737432E-1,-3.8499168E-1,3.933112E-2,-1.6887113E-3,-9.267296E-2,5.283688E-4,1.8264306E-1,-9.38239E-2,1.3533284E-1,-1.5688485E-1,5.0927054E-2,-4.846399E-2,1.6227949E-1,1.4672071E-2,5.717368E-2,-5.9469398E-2,1.6343888E-2,-4.069654E-2,1.623049E-1,3.8012084E-2,-2.3526836E-2,2.4971503E-1,-7.4275605E-2,-8.1974745E-1,1.2928815E-1,-2.2368025E-2,4.505397E-2,-1.9897154E-2,4.6369072E-2,1.2463742E-2,-5.04237E-2,-8.121323E-3,-6.0119744E-2,4.200196E-2,-3.409077E-2,5.271512E-2,-1.3923674E-2],"split_indices":[15,4,8,27,10,12,13,0,2,3,2,8,0,15,2,10,0,0,0,0,20,0,0,27,8,24,14,0,0,0,0,0,0,0,0,0,0,0,0],"split_type":[0,0,0,0,0,0,0,0,0,0,0,0,0,0,0,0,0,0,0,0,0,0,0,0,0,0,0,0,0,0,0,0,0,0,0,0,0,0,0],"sum_hessian":[1.29085E2,5.265185E1,7.643316E1,3.7640182E1,1.5011668E1,7.0370183E0,6.939614E1,1.3088772E0,3.6331306E1,6.1675677E0,8.8441E0,3.442682E0,3.5943363E0,3.950745E1,2.9888689E1,8.603616E0,2.772769E1,5.1660843E0,1.0014833E0,1.1280504E0,7.7160497E0,1.5620881E0,1.8805938E0,7.1678534E0,3.2339596E1,2.0771355E1,9.117334E0,1.7538464E0,6.849769E0,1.0366552E0,6.6793947E0,5.38565E0,1.7822034E0,4.569406E0,2.777019E1,1.6210834E0,1.9150272E1,7.719389E0,1.3979458E0],"tree_param":{"num_deleted":"0","num_feature":"32","num_nodes":"39","size_leaf_vector":"1"}},{"base_weights":[1.7374957E-2,-3.5618076E-1,7.122983E-1,7.256298E-1,-5.723535E-1,-4.659825E-1,8.684514E-1,-2.2704734E-2,9.2681724E-1,-1.0267043E0,-1.488676E-1,-5.5157173E-2,4.862549E-1,2.4397726E-1,1.0184389E0,-9.59988E-3,5.592644E-2,-2.7365932E-2,-1.1056943E0,-3.01434E-1,7.8625065E-1,3.491699E-2,1.193195E-3,-4.0623447E-1,4.977836E-2,1.0864583E0,1.7211191E-1,-4.2505506E-2,3.774678E-2,-3.251118E-3,-5.7353653E-2,-3.747217E-2,1.6006975E-2,5.493256E-2,-7.431342E-3,-4.8886232E-2,1.7142354E-2,1.3835709E-2,5.833407E-2,-2.6897345E-2,3.913781E-2],"categories":[],"categories_nodes":[],"categories_segments":[],"categories_sizes":[],"default_left":[0,0,0,0,0,0,0,0,0,0,0,0,0,0,0,0,0,0,0,0,0,0,0,0,0,0,0,0,0,0,0,0,0,0,0,0,0,0,0,0,0],"id":22,"left_children":[1,3,5,7,9,11,13,-1,15,17,19,-1,21,23,25,-1,-1,27,29,31,33,-1,-1,35,-1,37,39,-1,-1,-1,-1,-1,-1,-1,-1,-1,-1,-1,-1,-1,-1],"loss_changes":[3.3529156E1,2.006763E1,8.711586E0,3.8473325E0,1.3431118E1,4.1367087E0,3.518116E0,0E0,2.9306564E0,2.6448288E0,5.617003E0,0E0,2.8468013E-1,4.8530884E0,1.6615295E0,0E0,0E0,2.8995142E0,1.2767296E0,9.469398E0,1.789052E0,0E0,0E0,2.7286606E0,0E0,1.5956955E0,1.9720496E0,0E0,0E0,0E0,0E0,0E0,0E0,0E0,0E0,0E0,0E0,0E0,0E0,0E0,0E0],"parents":[2147483647,0,0,1,1,2,2,3,3,4,4,5,5,6,6,8,8,9,9,10,10,12,12,13,13,14,14,17,17,18,18,19,19,20,20,23,23,25,25,26,26],"right_children":[2,4,6,8,10,12,14,-1,16,18,20,-1,22,24,26,-1,-1,28,30,32,34,-1,-1,36,-1,38,40,-1,-1,-1,-1,-1,-1,-1,-1,-1,-1,-1,-1,-1,-1],"split_conditions":[6.824734E-3,-8.625953E-2,1.2384856E-1,1.610671E-1,5.552784E-2,1.0762644E-1,1.5117218E-1,-2.2704734E-2,-9.6179515E-2,-6.534071E-2,2.734319E-1,-5.5157173E-2,1.0493495E-1,1.323296E-1,3.8239647E-2,-9.59988E-3,5.592644E-2,1.57612E-1,-4.9998578E-1,-5.899931E-2,2.1614009E-1,3.491699E-2,1.193195E-3,1.10364854E-1,4.977836E-2,1.1711331E-2,2.0172873E-1,-4.2505506E-2,3.774678E-2,-3.251118E-3,-5.7353653E-2,-3.747217E-2,1.6006975E-2,5.493256E-2,-7.431342E-3,-4.8886232E-2,1.7142354E-2,1.3835709E-2,5.833407E-2,-2.6897345E-2,3.913781E-2],"split_indices":[1,0,6,2,10,8,2,0,17,0,11,0,6,10,0,0,0,2,16,7,2,0,0,14,0,1,10,0,0,0,0,0,0,0,0,0,0,0,0,0,0],"split_type":[0,0,0,0,0,0,0,0,0,0,0,0,0,0,0,0,0,0,0,0,0,0,0,0,0,0,0,0,0,0,0,0,0,0,0,0,0,0,0,0,0],"sum_hessian":[1.2718336E2,8.303525E1,4.4148106E1,1.3436615E1,6.959863E1,4.9339557E0,3.921415E1,1.7744582E0,1.1662156E1,3.2888603E1,3.671003E1,2.861077E0,2.0728786E0,8.103174E0,3.1110977E1,1.7057904E0,9.956366E0,2.5077941E0,3.038081E1,3.2143417E1,4.5666113E0,1.0712492E0,1.0016295E0,4.590963E0,3.512211E0,2.8533966E1,2.577011E0,1.1800551E0,1.3277389E0,1.2601281E0,2.912068E1,1.856016E1,1.3583261E1,3.2915263E0,1.2750847E0,2.43104E0,2.159923E0,2.973165E0,2.55608E1,1.2465593E0,1.3304518E0],"tree_param":{"num_deleted":"0","num_feature":"32","num_nodes":"41","size_leaf_vector":"1"}},{"base_weights":[1.8064689E-2,6.877211E-1,-4.3622902E-1,1.0197983E0,1.1122712E-1,4.952261E-1,-6.087031E-1,6.4529294E-1,5.6776315E-2,7.465566E-1,-6.175128E-1,-6.544554E-1,9.908153E-1,-8.483409E-1,7.591496E-2,-7.908824E-2,4.9601063E-2,1.4470524E-1,5.2945007E-2,-1.0326561E0,3.451035E-1,-4.9229458E-2,-3.5717231E-3,2.19511E-3,5.5807214E-2,3.3713117E-2,-9.362168E-1,-1.9634318E-1,5.0485868E-2,-3.432856E-2,3.447224E-2,4.005795E-2,-2.4321565E-2,-5.8754463E-2,-1.6377892E-2,-2.4563579E-2,4.1573912E-2,-5.5742145E-2,-1.9459696E-2,-3.1817805E-2,2.756897E-2],"categories":[],"categories_nodes":[],"categories_segments":[],"categories_sizes":[],"default_left":[0,0,0,0,0,0,0,0,0,0,0,0,0,0,0,0,0,0,0,0,0,0,0,0,0,0,0,0,0,0,0,0,0,0,0,0,0,0,0,0,0],"id":23,"left_children":[1,3,5,7,9,11,13,15,-1,17,19,21,23,25,27,29,-1,31,-1,33,35,-1,-1,-1,-1,-1,37,39,-1,-1,-1,-1,-1,-1,-1,-1,-1,-1,-1,-1,-1],"loss_changes":[3.9388577E1,9.90312E0,1.2698234E1,7.0079803E-1,9.834607E0,7.831802E0,1.0819889E1,2.6213632E0,0E0,1.9651303E0,4.3434143E0,7.765273E-1,1.0437202E0,7.1396294E0,4.7530127E0,2.435872E0,0E0,2.4647417E0,0E0,3.4031343E-1,1.936294E0,0E0,0E0,0E0,0E0,0E0,4.1006584E0,5.190068E0,0E0,0E0,0E0,0E0,0E0,0E0,0E0,0E0,0E0,0E0,0E0,0E0,0E0],"parents":[2147483647,0,0,1,1,2,2,3,3,4,4,5,5,6,6,7,7,9,9,10,10,11,11,12,12,13,13,14,14,15,15,17,17,19,19,20,20,26,26,27,27],"right_children":[2,4,6,8,10,12,14,16,-1,18,20,22,24,26,28,30,-1,32,-1,34,36,-1,-1,-1,-1,-1,38,40,-1,-1,-1,-1,-1,-1,-1,-1,-1,-1,-1,-1,-1],"split_conditions":[-6.251511E-2,-1.2796935E-2,-7.7658735E-2,1.7658143E-1,-2.8065804E-2,1.3032316E-1,6.0012667E-3,-1.0184263E-1,5.6776315E-2,8.966778E-2,1.4675511E-1,7.129829E-1,-9.63632E-2,-1.02293625E-1,1.9103667E-1,1.4385957E-1,4.9601063E-2,-8.196371E-1,5.2945007E-2,-5.9760638E-2,1.2542382E-3,-4.9229458E-2,-3.5717231E-3,2.19511E-3,5.5807214E-2,3.3713117E-2,-6.425075E-2,1.0762644E-1,5.0485868E-2,-3.432856E-2,3.447224E-2,4.005795E-2,-2.4321565E-2,-5.8754463E-2,-1.6377892E-2,-2.4563579E-2,4.1573912E-2,-5.5742145E-2,-1.9459696E-2,-3.1817805E-2,2.756897E-2],"split_indices":[15,5,8,2,0,6,1,13,0,8,9,20,27,0,6,9,0,4,0,7,5,0,0,0,0,0,7,8,0,0,0,0,0,0,0,0,0,0,0,0,0],"split_type":[0,0,0,0,0,0,0,0,0,0,0,0,0,0,0,0,0,0,0,0,0,0,0,0,0,0,0,0,0,0,0,0,0,0,0,0,0,0,0,0,0],"sum_hessian":[1.2748756E2,5.1322002E1,7.616556E1,3.207621E1,1.9245794E1,1.1607475E1,6.455808E1,9.124502E0,2.2951708E1,1.0268805E1,8.97699E0,3.3998497E0,8.207625E0,4.7642544E1,1.6915535E1,3.20356E0,5.920942E0,4.0083833E0,6.2604213E0,6.221228E0,2.7557611E0,1.7309394E0,1.6689104E0,1.1171775E0,7.090448E0,2.2355087E0,4.5407036E1,1.3708455E1,3.2070804E0,1.8488183E0,1.3547418E0,1.8327374E0,2.175646E0,4.621169E0,1.6000595E0,1.0095906E0,1.7461705E0,3.3447113E1,1.1959923E1,8.723733E0,4.984722E0],"tree_param":{"num_deleted":"0","num_feature":"32","num_nodes":"41","size_leaf_vector":"1"}},{"base_weights":[1.4013641E-2,7.1832615E-1,-4.1750798E-1,9.810727E-1,4.467678E-2,-9.115792E-1,-1.03058584E-1,1.0232983E0,4.8974627E-3,-4.2270678E-1,4.5406304E-2,3.6303335E-1,-1.0939438E0,4.4277063E-1,-4.5071983E-1,1.0655051E0,3.2207468E-1,5.589055E-1,-9.112937E-1,-1.922001E-2,4.333967E-2,6.1456095E-3,-1.1663538E0,-9.295785E-1,7.7489203E-1,3.9579928E-1,-7.63259E-1,5.409794E-2,1.4913179E-2,3.458886E-2,-1.214715E-2,-7.018586E-4,4.4115108E-2,6.2657124E-3,-5.680575E-2,-1.7081937E-2,-6.1722916E-2,-1.1497712E-2,-5.4327406E-2,4.816237E-2,-2.2420933E-2,-2.3466593E-2,4.201059E-2,-5.643935E-2,-8.531439E-3],"categories":[],"categories_nodes":[],"categories_segments":[],"categories_sizes":[],"default_left":[0,0,0,0,0,0,0,0,0,0,0,0,0,0,0,0,0,0,0,0,0,0,0,0,0,0,0,0,0,0,0,0,0,0,0,0,0,0,0,0,0,0,0,0,0],"id":24,"left_children":[1,3,5,7,9,11,13,15,-1,17,-1,19,21,23,25,27,29,31,33,-1,-1,-1,35,37,39,41,43,-1,-1,-1,-1,-1,-1,-1,-1,-1,-1,-1,-1,-1,-1,-1,-1,-1,-1],"loss_changes":[3.8246037E1,8.416954E0,1.2032221E1,1.1803436E0,6.2195554E0,7.423561E0,9.464479E0,6.2368774E-1,0E0,5.3362246E0,0E0,2.040526E0,2.4954338E0,9.6090145E0,8.324284E0,6.0806274E-2,8.548652E-1,7.4695873E-1,1.7970037E0,0E0,0E0,0E0,9.987259E-1,2.1738553E-1,4.175582E0,3.791061E0,4.678569E0,0E0,0E0,0E0,0E0,0E0,0E0,0E0,0E0,0E0,0E0,0E0,0E0,0E0,0E0,0E0,0E0,0E0,0E0],"parents":[2147483647,0,0,1,1,2,2,3,3,4,4,5,5,6,6,7,7,9,9,11,11,12,12,13,13,14,14,15,15,16,16,17,17,18,18,22,22,23,23,24,24,25,25,26,26],"right_children":[2,4,6,8,10,12,14,16,-1,18,-1,20,22,24,26,28,30,32,34,-1,-1,-1,36,38,40,42,44,-1,-1,-1,-1,-1,-1,-1,-1,-1,-1,-1,-1,-1,-1,-1,-1,-1,-1],"split_conditions":[-6.5044895E-2,-1.1151657E-1,5.552784E-2,3.2534588E-2,1.1745189E-1,-8.845012E-2,5.2468266E-2,6.744711E-2,4.8974627E-3,-1.4303772E-2,4.5406304E-2,1.610671E-1,2.244759E-2,1.2384856E-1,-4.6435405E-2,3.7246993E-1,-6.231971E-1,-1.3656074E-1,-3.6614824E-2,-1.922001E-2,4.333967E-2,6.1456095E-3,-6.380826E-2,6.0599808E-2,-5.7044934E-2,1.4963603E-1,1.8236986E-1,5.409794E-2,1.4913179E-2,3.458886E-2,-1.214715E-2,-7.018586E-4,4.4115108E-2,6.2657124E-3,-5.680575E-2,-1.7081937E-2,-6.1722916E-2,-1.1497712E-2,-5.4327406E-2,4.816237E-2,-2.2420933E-2,-2.3466593E-2,4.201059E-2,-5.643935E-2,-8.531439E-3],"split_indices":[15,4,10,0,8,0,12,5,0,5,0,2,12,6,0,21,18,21,0,0,0,0,0,16,4,2,6,0,0,0,0,0,0,0,0,0,0,0,0,0,0,0,0,0,0],"split_type":[0,0,0,0,0,0,0,0,0,0,0,0,0,0,0,0,0,0,0,0,0,0,0,0,0,0,0,0,0,0,0,0,0,0,0,0,0,0,0,0,0,0,0,0,0],"sum_hessian":[1.2385315E2,4.6801292E1,7.705186E1,3.334085E1,1.3460441E1,2.9228418E1,4.7823437E1,3.1667961E1,1.672892E0,9.064362E0,4.3960786E0,3.534415E0,2.5694004E1,1.8501873E1,2.9321564E1,2.9380068E1,2.2878923E0,2.964503E0,6.0998588E0,1.5184356E0,2.0159793E0,1.403899E0,2.4290106E1,3.2546244E0,1.5247248E1,7.834702E0,2.1486862E1,2.8361652E1,1.0184153E0,1.247368E0,1.0405242E0,1.4147208E0,1.5497823E0,1.1660463E0,4.9338126E0,2.3117874E0,2.1978317E1,1.0481061E0,2.2065184E0,1.3397067E1,1.850181E0,2.63979E0,5.194912E0,1.2730263E1,8.756599E0],"tree_param":{"num_deleted":"0","num_feature":"32","num_nodes":"45","size_leaf_vector":"1"}},{"base_weights":[1.0179421E-2,-2.842381E-1,7.5809604E-1,7.3432875E-1,-4.8194578E-1,1.1642634E-1,9.3992656E-1,-1.600902E-2,9.142984E-1,-8.987125E-1,-1.7657219E-1,-3.46454E-1,3.9279252E-2,-8.109187E-3,1.0138164E0,9.183417E-3,5.476887E-2,2.2163613E-1,-9.862931E-1,-4.6379158E-1,4.6220243E-1,-6.847041E-1,1.4864582E-2,-2.5947897E-3,1.0656172E0,-3.2735568E-2,3.2200333E-2,4.6315644E-2,-3.0969573E-2,-5.6518167E-2,-7.3932447E-3,2.6389336E-2,-3.3242743E-2,-7.929429E-3,4.933051E-2,4.6154405E-3,-5.148992E-2,1.1336902E-2,5.5268843E-2],"categories":[],"categories_nodes":[],"categories_segments":[],"categories_sizes":[],"default_left":[0,0,0,0,0,0,0,0,0,0,0,0,0,0,0,0,0,0,0,0,0,0,0,0,0,0,0,0,0,0,0,0,0,0,0,0,0,0,0],"id":25,"left_children":[1,3,5,7,9,11,13,-1,15,17,19,21,-1,-1,23,25,-1,27,29,31,33,35,-1,-1,37,-1,-1,-1,-1,-1,-1,-1,-1,-1,-1,-1,-1,-1,-1],"loss_changes":[2.7565254E1,1.8447552E1,4.015669E0,3.1396933E0,9.494402E0,3.043706E0,2.396347E0,0E0,2.1326923E0,3.3417187E0,8.473786E0,1.5063727E0,0E0,0E0,1.480875E0,1.7652284E0,0E0,2.425372E0,3.4210167E0,6.641794E0,4.8652973E0,1.2279606E0,0E0,0E0,5.7229805E-1,0E0,0E0,0E0,0E0,0E0,0E0,0E0,0E0,0E0,0E0,0E0,0E0,0E0,0E0],"parents":[2147483647,0,0,1,1,2,2,3,3,4,4,5,5,6,6,8,8,9,9,10,10,11,11,14,14,15,15,17,17,18,18,19,19,20,20,21,21,24,24],"right_children":[2,4,6,8,10,12,14,-1,16,18,20,22,-1,-1,24,26,-1,28,30,32,34,36,-1,-1,38,-1,-1,-1,-1,-1,-1,-1,-1,-1,-1,-1,-1,-1,-1],"split_conditions":[1.782168E-2,-8.625953E-2,1.4170514E-1,1.610671E-1,5.552784E-2,1.323296E-1,1.05892606E-1,-1.600902E-2,-3.2040042E-1,2.4151446E-2,1.9840041E-1,1.0762644E-1,3.9279252E-2,-8.109187E-3,-1.692811E-2,-2.9783567E-2,5.476887E-2,3.3784546E-3,1.20294824E-1,6.679544E-2,-1.9148451E-1,-1.11435264E-1,1.4864582E-2,-2.5947897E-3,1.3552997E-1,-3.2735568E-2,3.2200333E-2,4.6315644E-2,-3.0969573E-2,-5.6518167E-2,-7.3932447E-3,2.6389336E-2,-3.3242743E-2,-7.929429E-3,4.933051E-2,4.6154405E-3,-5.148992E-2,1.1336902E-2,5.5268843E-2],"split_indices":[1,0,2,2,10,10,6,0,1,12,6,8,0,0,12,27,0,10,8,10,3,3,0,0,11,0,0,0,0,0,0,0,0,0,0,0,0,0,0],"split_type":[0,0,0,0,0,0,0,0,0,0,0,0,0,0,0,0,0,0,0,0,0,0,0,0,0,0,0,0,0,0,0,0,0,0,0,0,0,0,0],"sum_hessian":[1.2320439E2,8.8848946E1,3.4355442E1,1.4001362E1,7.484759E1,7.9479337E0,2.640751E1,1.9276227E0,1.2073739E1,3.0829378E1,4.4018208E1,4.983162E0,2.9647717E0,1.5841421E0,2.4823368E1,2.1879735E0,9.885766E0,2.124295E0,2.8705084E1,3.0553865E1,1.3464342E1,3.2249937E0,1.7581682E0,1.1505697E0,2.3672798E1,1.0541844E0,1.1337891E0,1.1006668E0,1.0236282E0,2.419873E1,4.506352E0,4.877019E0,2.5676846E1,6.485009E0,6.979333E0,1.217096E0,2.0078976E0,1.3745359E0,2.2298262E1],"tree_param":{"num_deleted":"0","num_feature":"32","num_nodes":"39","size_leaf_vector":"1"}},{"base_weights":[1.411293E-2,-2.8184006E-1,7.721201E-1,7.321064E-1,-4.8561975E-1,-1.656049E-1,9.3488955E-1,-1.5502378E-2,9.078383E-1,-8.696064E-1,-1.6879392E-1,-4.3477383E-2,4.057595E-1,2.9221076E-1,1.0423149E0,-7.650958E-3,5.439508E-2,-1.0441595E0,-2.0524377E-1,2.3183337E-1,-5.899497E-1,-7.6095536E-3,3.8819518E-2,-2.2638628E-2,4.0511385E-2,4.1563365E-1,5.695584E-2,-9.749389E-4,-5.4620165E-2,-4.4974558E-2,2.73067E-2,-2.0422583E-2,3.5681166E-2,1.0466384E-2,-4.783229E-2,-3.1576604E-2,4.2551726E-2],"categories":[],"categories_nodes":[],"categories_segments":[],"categories_sizes":[],"default_left":[0,0,0,0,0,0,0,0,0,0,0,0,0,0,0,0,0,0,0,0,0,0,0,0,0,0,0,0,0,0,0,0,0,0,0,0,0],"id":26,"left_children":[1,3,5,7,9,11,13,-1,15,17,19,-1,21,23,25,-1,-1,27,29,31,33,-1,-1,-1,-1,35,-1,-1,-1,-1,-1,-1,-1,-1,-1,-1,-1],"loss_changes":[2.738669E1,1.850405E1,5.3863354E0,3.0464096E0,8.823847E0,2.7334974E0,1.7221699E0,0E0,2.6828995E0,3.6235485E0,7.1629863E0,0E0,9.34788E-1,2.5255604E0,1.0287266E0,0E0,0E0,1.2621822E0,4.7325177E0,7.096408E0,6.2330523E0,0E0,0E0,0E0,0E0,2.765932E0,0E0,0E0,0E0,0E0,0E0,0E0,0E0,0E0,0E0,0E0,0E0],"parents":[2147483647,0,0,1,1,2,2,3,3,4,4,5,5,6,6,8,8,9,9,10,10,12,12,13,13,14,14,17,17,18,18,19,19,20,20,25,25],"right_children":[2,4,6,8,10,12,14,-1,16,18,20,-1,22,24,26,-1,-1,28,30,32,34,-1,-1,-1,-1,36,-1,-1,-1,-1,-1,-1,-1,-1,-1,-1,-1],"split_conditions":[1.782168E-2,-8.625953E-2,1.3404913E-1,1.610671E-1,5.8860056E-2,1.6287611E-1,6.3207194E-2,-1.5502378E-2,-9.6179515E-2,1.1233209E-1,3.6625415E-3,-4.3477383E-2,3.3075103E-1,1.7989004E-1,3.16427E-2,-7.650958E-3,5.439508E-2,-4.9998578E-1,-8.736246E-2,1.5320475E-1,-7.165628E-2,-7.6095536E-3,3.8819518E-2,-2.2638628E-2,4.0511385E-2,1.6038677E-1,5.695584E-2,-9.749389E-4,-5.4620165E-2,-4.4974558E-2,2.73067E-2,-2.0422583E-2,3.5681166E-2,1.0466384E-2,-4.783229E-2,-3.1576604E-2,4.2551726E-2],"split_indices":[1,0,2,2,10,11,8,0,17,8,0,0,28,9,10,0,0,16,13,2,8,0,0,0,0,2,0,0,0,0,0,0,0,0,0,0,0],"split_type":[0,0,0,0,0,0,0,0,0,0,0,0,0,0,0,0,0,0,0,0,0,0,0,0,0,0,0,0,0,0,0,0,0,0,0,0,0],"sum_hessian":[1.20109665E2,8.683455E1,3.3275116E1,1.4097414E1,7.273713E1,4.919005E0,2.8356112E1,1.9238667E0,1.2173548E1,3.2094494E1,4.064264E1,1.9700048E0,2.9490001E0,4.5937634E0,2.3762348E1,1.7882309E0,1.0385317E1,2.4963873E1,7.1306233E0,2.1059334E1,1.9583303E1,1.4122944E0,1.5367059E0,1.9357809E0,2.6579826E0,3.8876858E0,1.9874662E1,1.1856534E0,2.377822E1,3.6037548E0,3.5268686E0,9.107692E0,1.1951642E1,6.2938733E0,1.328943E1,1.0094458E0,2.8782399E0],"tree_param":{"num_deleted":"0","num_feature":"32","num_nodes":"37","size_leaf_vector":"1"}},{"base_weights":[-1.6199606E-2,7.507293E-1,-3.6293733E-1,5.542195E-2,3.1905618E-1,3.3343825E-2,-6.7638934E-1,-5.627187E-1,7.126247E-1,-8.6179614E-1,2.7767992E-1,-9.0319026E-1,-2.2225954E-1,-9.0135074E-1,5.1990594E-3,-7.7745193E-3,8.267229E-1,-4.946008E-3,-1.0755755E0,-4.0949337E-2,9.629693E-1,-3.892255E-1,-1.1083287E0,1.6167133E-1,-9.711696E-1,-1.4332825E-2,-5.4161277E-2,4.74193E-2,-1.8499087E-3,-1.5458076E-2,-5.8903676E-2,3.9223827E-2,-2.9431412E-2,2.819753E-3,5.674548E-2,-3.9231174E-2,2.5519794E-2,-5.7793405E-2,-1.0938876E-2,2.7668107E-2,-5.078104E-2,-5.3848892E-2,-1.17858155E-2],"categories":[],"categories_nodes":[],"categories_segments":[],"categories_sizes":[],"default_left":[0,0,0,0,0,0,0,0,0,0,0,0,0,0,0,0,0,0,0,0,0,0,0,0,0,0,0,0,0,0,0,0,0,0,0,0,0,0,0,0,0,0,0],"id":27,"left_children":[1,3,5,-1,7,9,11,13,15,17,19,21,23,25,-1,-1,27,-1,29,31,33,35,37,39,41,-1,-1,-1,-1,-1,-1,-1,-1,-1,-1,-1,-1,-1,-1,-1,-1,-1,-1],"loss_changes":[3.1646309E1,5.3687534E0,1.0198488E1,0E0,6.7162457E0,8.360984E0,4.5153103E0,1.4877114E0,1.4184809E0,1.2319283E0,6.574182E0,2.753868E0,4.9234805E0,1.5882564E-1,0E0,0E0,1.26125E0,0E0,1.3136816E-1,1.0130648E1,1.4229555E0,4.0143E0,6.373577E-1,6.010951E0,1.944375E-1,0E0,0E0,0E0,0E0,0E0,0E0,0E0,0E0,0E0,0E0,0E0,0E0,0E0,0E0,0E0,0E0,0E0,0E0],"parents":[2147483647,0,0,1,1,2,2,4,4,5,5,6,6,7,7,8,8,9,9,10,10,11,11,12,12,13,13,16,16,18,18,19,19,20,20,21,21,22,22,23,23,24,24],"right_children":[2,4,6,-1,8,10,12,14,16,18,20,22,24,26,-1,-1,28,-1,30,32,34,36,38,40,42,-1,-1,-1,-1,-1,-1,-1,-1,-1,-1,-1,-1,-1,-1,-1,-1,-1,-1],"split_conditions":[-7.192829E-2,-2.2708666E-2,-1.0312306E-1,5.542195E-2,1.7780796E-1,1.2734805E-1,-6.384634E-2,1.3349852E-1,-8.1955194E-2,-3.5717285E-1,8.503815E-2,5.331367E-2,-4.353597E-2,-5.802433E-1,5.1990594E-3,-7.7745193E-3,1.0666991E-1,-4.946008E-3,1.5343487E-1,-7.4275605E-2,-7.649851E-1,1.10364854E-1,-8.17168E-2,1.1450652E-2,-3.9095916E-2,-1.4332825E-2,-5.4161277E-2,4.74193E-2,-1.8499087E-3,-1.5458076E-2,-5.8903676E-2,3.9223827E-2,-2.9431412E-2,2.819753E-3,5.674548E-2,-3.9231174E-2,2.5519794E-2,-5.7793405E-2,-1.0938876E-2,2.7668107E-2,-5.078104E-2,-5.3848892E-2,-1.17858155E-2],"split_indices":[15,5,4,0,2,6,7,27,17,31,8,12,4,19,0,0,12,0,9,8,24,14,3,5,15,0,0,0,0,0,0,0,0,0,0,0,0,0,0,0,0,0,0],"split_type":[0,0,0,0,0,0,0,0,0,0,0,0,0,0,0,0,0,0,0,0,0,0,0,0,0,0,0,0,0,0,0,0,0,0,0,0,0,0,0,0,0,0,0],"sum_hessian":[1.1698083E2,3.605897E1,8.092186E1,1.8861477E1,1.7197495E1,3.6133617E1,4.478824E1,5.1744833E0,1.2023012E1,7.2061954E0,2.8927423E1,2.9210924E1,1.5577316E1,3.1981244E0,1.9763589E0,1.3545035E0,1.0668509E1,1.8975326E0,5.3086624E0,2.0388103E1,8.539321E0,9.159533E0,2.0051392E1,1.0816388E1,4.7609277E0,1.3183908E0,1.8797334E0,9.265372E0,1.4031365E0,1.0999813E0,4.208681E0,7.959579E0,1.2428524E1,1.5730795E0,6.966241E0,6.4517255E0,2.7078066E0,1.8749973E1,1.301418E0,8.513782E0,2.3026063E0,3.7561624E0,1.0047653E0],"tree_param":{"num_deleted":"0","num_feature":"32","num_nodes":"43","size_leaf_vector":"1"}},{"base_weights":[-1.8461157E-3,6.366272E-1,-3.9127946E-1,1.2308413E-1,1.0074605E0,-5.379474E-1,4.040866E-1,5.967756E-1,-8.1102586E-1,5.2838113E-2,-4.399037E-3,4.4709793E-1,-6.546839E-1,6.41129E-1,-4.6827966E-1,-7.055669E-2,8.0939275E-1,-5.6788262E-2,1.3276531E-2,-2.5374327E-2,7.851441E-1,4.373674E-2,-7.2900695E-1,-7.112733E-2,8.342149E-1,1.1584188E-3,-3.641173E-2,-2.7937157E-2,3.294223E-2,4.6375055E-2,6.7670057E-3,-2.8623908E-3,5.0854664E-2,-4.6765376E-2,-1.2819885E-2,-5.832753E-3,4.855492E-4,8.367971E-3,4.713433E-2],"categories":[],"categories_nodes":[],"categories_segments":[],"categories_sizes":[],"default_left":[0,0,0,0,0,0,0,0,0,0,0,0,0,0,0,0,0,0,0,0,0,0,0,0,0,0,0,0,0,0,0,0,0,0,0,0,0,0,0],"id":28,"left_children":[1,3,5,7,9,11,13,15,17,-1,-1,19,21,23,25,27,29,-1,-1,-1,31,-1,33,35,37,-1,-1,-1,-1,-1,-1,-1,-1,-1,-1,-1,-1,-1,-1],"loss_changes":[2.9352062E1,8.393427E0,8.770735E0,9.286341E0,1.4880886E0,7.460682E0,2.7789435E0,2.0116925E0,2.7898574E0,0E0,0E0,2.721449E0,7.0187817E0,1.4136567E0,4.1790056E-1,1.8808981E0,7.125678E-1,0E0,0E0,0E0,1.1736748E0,0E0,5.032999E0,1.2253829E-2,4.0832615E-1,0E0,0E0,0E0,0E0,0E0,0E0,0E0,0E0,0E0,0E0,0E0,0E0,0E0,0E0],"parents":[2147483647,0,0,1,1,2,2,3,3,4,4,5,5,6,6,7,7,8,8,11,11,12,12,13,13,14,14,15,15,16,16,20,20,22,22,23,23,24,24],"right_children":[2,4,6,8,10,12,14,16,18,-1,-1,20,22,24,26,28,30,-1,-1,-1,32,-1,34,36,38,-1,-1,-1,-1,-1,-1,-1,-1,-1,-1,-1,-1,-1,-1],"split_conditions":[-6.1211515E-2,-4.2841034E-3,2.7141327E-2,-1.1262566E-2,6.424932E-1,-9.367327E-2,2.773936E-1,8.072798E-3,1.4675511E-1,5.2838113E-2,-4.399037E-3,-1.3779612E-2,-1.091177E-1,-5.7016168E-2,-2.9342107E-2,7.301058E-1,1.0516407E-1,-5.6788262E-2,1.3276531E-2,-2.5374327E-2,3.1247804E-1,4.373674E-2,-6.92838E-2,-6.6486025E-1,-2.2627115E-1,1.1584188E-3,-3.641173E-2,-2.7937157E-2,3.294223E-2,4.6375055E-2,6.7670057E-3,-2.8623908E-3,5.0854664E-2,-4.6765376E-2,-1.2819885E-2,-5.832753E-3,4.855492E-4,8.367971E-3,4.713433E-2],"split_indices":[15,1,1,0,16,8,27,27,9,0,0,23,0,15,21,20,12,0,0,0,20,0,7,25,21,0,0,0,0,0,0,0,0,0,0,0,0,0,0],"split_type":[0,0,0,0,0,0,0,0,0,0,0,0,0,0,0,0,0,0,0,0,0,0,0,0,0,0,0,0,0,0,0,0,0,0,0,0,0,0,0],"sum_hessian":[1.1604727E2,4.3725258E1,7.2322014E1,1.88932E1,2.4832058E1,6.1335255E1,1.098676E1,1.2775708E1,6.1174912E0,2.3796381E1,1.0356779E0,6.1987767E0,5.513648E1,8.8477E0,2.1390595E0,3.2483633E0,9.527345E0,4.6575575E0,1.4599338E0,1.4900098E0,4.708767E0,2.0561297E0,5.308035E1,2.0216937E0,6.826007E0,1.0551537E0,1.0839058E0,2.0861073E0,1.162256E0,7.7869067E0,1.7404385E0,1.1792309E0,3.529536E0,3.626927E1,1.6811075E1,1.0098724E0,1.0118214E0,1.3107488E0,5.515258E0],"tree_param":{"num_deleted":"0","num_feature":"32","num_nodes":"39","size_leaf_vector":"1"}},{"base_weights":[8.856759E-3,7.42675E-1,-3.0061877E-1,3.661957E-1,5.3732347E-2,-7.735225E-1,-2.8528996E-2,7.259359E-1,-4.4175965E-1,4.2858845E-1,-9.705392E-1,1.5688363E-1,-9.8680365E-1,-1.0414953E-2,8.414785E-1,-4.5139175E-2,2.8602362E-2,-1.6325455E-2,4.3230243E-2,2.5852112E-2,-1.0536876E0,6.418045E-1,-2.907057E-1,-1.5427378E-2,-1.0601404E0,3.1242329E-3,4.876596E-2,-1.6493373E-2,-5.560988E-2,5.2961122E-2,4.4333576E-3,1.14731E-2,-3.8105655E-2,-1.5965734E-2,-5.6577843E-2],"categories":[],"categories_nodes":[],"categories_segments":[],"categories_sizes":[],"default_left":[0,0,0,0,0,0,0,0,0,0,0,0,0,0,0,0,0,0,0,0,0,0,0,0,0,0,0,0,0,0,0,0,0,0,0],"id":29,"left_children":[1,3,5,7,-1,9,11,13,15,17,19,21,23,-1,25,-1,-1,-1,-1,-1,27,29,31,-1,33,-1,-1,-1,-1,-1,-1,-1,-1,-1,-1],"loss_changes":[2.5583761E1,3.7825298E0,1.0176241E1,5.312423E0,0E0,7.2625694E0,9.278371E0,1.4988351E0,3.2799397E0,1.8509135E0,3.65489E0,9.712158E0,9.379768E-2,0E0,1.0974369E0,0E0,0E0,0E0,0E0,0E0,6.55571E-1,4.8418093E0,5.939905E0,0E0,2.0965576E-2,0E0,0E0,0E0,0E0,0E0,0E0,0E0,0E0,0E0,0E0],"parents":[2147483647,0,0,1,1,2,2,3,3,5,5,6,6,7,7,8,8,9,9,10,10,11,11,12,12,14,14,20,20,21,21,22,22,24,24],"right_children":[2,4,6,8,-1,10,12,14,16,18,20,22,24,-1,26,-1,-1,-1,-1,-1,28,30,32,-1,34,-1,-1,-1,-1,-1,-1,-1,-1,-1,-1],"split_conditions":[-7.192829E-2,4.7512106E-3,5.552784E-2,-1.9368913E-2,5.3732347E-2,-8.625953E-2,-4.5825507E-2,1.0480869E-1,-3.7063424E-2,1.5523905E-1,-1.7209762E-1,3.6625415E-3,-6.469093E-2,-1.0414953E-2,-1.718797E-1,-4.5139175E-2,2.8602362E-2,-1.6325455E-2,4.3230243E-2,2.5852112E-2,-6.534071E-2,7.982826E-2,5.144752E-2,-1.5427378E-2,-1.0184263E-1,3.1242329E-3,4.876596E-2,-1.6493373E-2,-5.560988E-2,5.2961122E-2,4.4333576E-3,1.14731E-2,-3.8105655E-2,-1.5965734E-2,-5.6577843E-2],"split_indices":[15,1,10,0,0,0,4,28,7,2,4,0,17,0,3,0,0,0,0,0,0,12,12,0,13,0,0,0,0,0,0,0,0,0,0],"split_type":[0,0,0,0,0,0,0,0,0,0,0,0,0,0,0,0,0,0,0,0,0,0,0,0,0,0,0,0,0,0,0,0,0,0,0],"sum_hessian":[1.1067168E2,3.2413666E1,7.825801E1,1.6174147E1,1.6239517E1,2.790866E1,5.034935E1,1.1261505E1,4.9126425E0,3.7644176E0,2.4144243E1,4.288751E1,7.461842E0,1.1511275E0,1.0110377E1,3.452257E0,1.4603858E0,1.4699308E0,2.2944868E0,1.0018656E0,2.3142378E1,2.0377016E1,2.2510492E1,1.2361898E0,6.225652E0,1.6974654E0,8.412911E0,2.2272406E0,2.0915136E1,1.1091799E1,9.285217E0,1.0945775E1,1.1564717E1,1.0284436E0,5.197209E0],"tree_param":{"num_deleted":"0","num_feature":"32","num_nodes":"35","size_leaf_vector":"1"}},{"base_weights":[1.4307635E-2,-3.0560708E-1,6.286759E-1,3.3104816E-1,-5.798975E-1,-6.944429E-2,8.419048E-1,-8.4898907E-1,7.566418E-1,-8.180422E-1,-4.357958E-2,-4.3673477E-1,6.250358E-1,9.6364653E-1,1.4560783E-2,-5.551466E-2,1.0130698E-2,-3.2143209E-3,8.717495E-1,-1.0443063E0,-5.409481E-1,-6.8402505E-1,5.74073E-1,1.0852535E-1,-4.7404304E-2,4.0456858E-2,3.2776054E-3,2.5660095E-1,1.0348395E0,4.2420495E-1,-3.5696264E-2,9.637899E-3,4.848181E-2,-5.980508E-4,-5.806436E-2,-2.9545287E-3,-4.207691E-2,-4.5308657E-2,2.3428712E-2,-1.076231E-2,4.9197618E-2,-1.6619625E-2,2.8785242E-2,-2.528516E-2,4.2890415E-2,1.3751069E-2,5.338796E-2,3.850029E-2,-3.0692923E-3],"categories":[],"categories_nodes":[],"categories_segments":[],"categories_sizes":[],"default_left":[0,0,0,0,0,0,0,0,0,0,0,0,0,0,0,0,0,0,0,0,0,0,0,0,0,0,0,0,0,0,0,0,0,0,0,0,0,0,0,0,0,0,0,0,0,0,0,0,0],"id":30,"left_children":[1,3,5,7,9,11,13,15,17,19,21,23,25,27,29,-1,-1,-1,31,33,35,37,39,41,-1,-1,-1,43,45,47,-1,-1,-1,-1,-1,-1,-1,-1,-1,-1,-1,-1,-1,-1,-1,-1,-1,-1,-1],"loss_changes":[2.165472E1,1.2849106E1,5.6732626E0,1.1922561E1,6.480631E0,2.759682E0,2.9038792E0,1.9904122E0,1.6658621E0,1.646698E0,7.016393E0,2.0449252E0,3.3668566E-1,1.0048847E0,1.7147909E0,0E0,0E0,0E0,8.1070423E-1,2.2013988E0,2.5474405E0,2.646318E0,3.1454206E0,1.0705416E0,0E0,0E0,0E0,2.101344E0,2.7163696E-1,6.611257E-1,0E0,0E0,0E0,0E0,0E0,0E0,0E0,0E0,0E0,0E0,0E0,0E0,0E0,0E0,0E0,0E0,0E0,0E0,0E0],"parents":[2147483647,0,0,1,1,2,2,3,3,4,4,5,5,6,6,7,7,8,8,9,9,10,10,11,11,12,12,13,13,14,14,18,18,19,19,20,20,21,21,22,22,23,23,27,27,28,28,29,29],"right_children":[2,4,6,8,10,12,14,16,18,20,22,24,26,28,30,-1,-1,-1,32,34,36,38,40,42,-1,-1,-1,44,46,48,-1,-1,-1,-1,-1,-1,-1,-1,-1,-1,-1,-1,-1,-1,-1,-1,-1,-1,-1],"split_conditions":[6.824734E-3,-5.1632542E-2,1.4170514E-1,1.5811042E-1,1.6364788E-1,1.323296E-1,3.8239647E-2,1.0493972E-1,-3.2040042E-1,1.6610506E-1,1.8236986E-1,-1.2180477E-2,3.0657966E-2,1.1711331E-2,1.7026743E-1,-5.551466E-2,1.0130698E-2,-3.2143209E-3,-1.718797E-1,-8.1462514E-1,-2.0946492E-2,2.5630036E-1,-1.9148451E-1,1.1968397E-1,-4.7404304E-2,4.0456858E-2,3.2776054E-3,-5.111863E-1,1.5117218E-1,1.5100498E-2,-3.5696264E-2,9.637899E-3,4.848181E-2,-5.980508E-4,-5.806436E-2,-2.9545287E-3,-4.207691E-2,-4.5308657E-2,2.3428712E-2,-1.076231E-2,4.9197618E-2,-1.6619625E-2,2.8785242E-2,-2.528516E-2,4.2890415E-2,1.3751069E-2,5.338796E-2,3.850029E-2,-3.0692923E-3],"split_indices":[1,0,2,2,9,10,0,10,1,2,6,0,0,1,27,0,0,0,3,24,0,9,3,27,0,0,0,18,2,12,0,0,0,0,0,0,0,0,0,0,0,0,0,0,0,0,0,0,0],"split_type":[0,0,0,0,0,0,0,0,0,0,0,0,0,0,0,0,0,0,0,0,0,0,0,0,0,0,0,0,0,0,0,0,0,0,0,0,0,0,0,0,0,0,0,0,0,0,0,0,0],"sum_hessian":[1.0819913E2,7.148035E1,3.671878E1,2.1460796E1,5.0019554E1,8.748889E0,2.7969893E1,5.4247727E0,1.6036022E1,3.427494E1,1.5744613E1,5.965201E0,2.783688E0,2.4238508E1,3.731386E0,4.3003936E0,1.1243793E0,2.0263016E0,1.4009722E1,1.7343855E1,1.6931086E1,7.6769285E0,8.067684E0,3.268126E0,2.697075E0,1.7587427E0,1.0249454E0,2.6385276E0,2.159998E1,2.65571E0,1.0756761E0,2.139344E0,1.1870378E1,1.8774835E0,1.5466371E1,6.964041E0,9.967044E0,6.6156507E0,1.0612777E0,2.9197915E0,5.1478925E0,1.8297471E0,1.438379E0,1.2334375E0,1.4050901E0,1.2854264E0,2.0314554E1,1.209025E0,1.4466848E0],"tree_param":{"num_deleted":"0","num_feature":"32","num_nodes":"49","size_leaf_vector":"1"}},{"base_weights":[2.379903E-2,6.95132E-1,-2.786674E-1,5.394878E-2,2.552996E-1,-7.5691795E-1,-1.3784745E-2,5.710201E-1,-4.509206E-1,3.9677527E-2,-8.790868E-1,1.5001169E-1,-9.823542E-1,8.352715E-1,-1.16346024E-1,-5.1697936E-2,2.7831757E-2,2.615369E-1,-1.0286462E0,5.502982E-1,-2.4451202E-1,-1.1073657E-2,-5.3869594E-2,5.6544505E-3,4.8266944E-2,3.383268E-2,-3.4904335E-2,3.9734915E-2,-2.6808163E-2,-5.412949E-2,-5.146229E-3,4.8880264E-2,4.3538883E-3,8.434898E-3,-3.852155E-2],"categories":[],"categories_nodes":[],"categories_segments":[],"categories_sizes":[],"default_left":[0,0,0,0,0,0,0,0,0,0,0,0,0,0,0,0,0,0,0,0,0,0,0,0,0,0,0,0,0,0,0,0,0,0,0],"id":31,"left_children":[1,3,5,-1,7,9,11,13,15,-1,17,19,21,23,25,-1,-1,27,29,31,33,-1,-1,-1,-1,-1,-1,-1,-1,-1,-1,-1,-1,-1,-1],"loss_changes":[2.1926033E1,5.3851414E0,9.426914E0,0E0,4.033433E0,5.7238913E0,7.9151073E0,2.3030305E0,3.9772282E0,0E0,4.5460243E0,6.8853045E0,2.8310728E-1,7.26285E-1,2.4329882E0,0E0,0E0,2.0012474E0,1.0055599E0,4.175727E0,4.9589148E0,0E0,0E0,0E0,0E0,0E0,0E0,0E0,0E0,0E0,0E0,0E0,0E0,0E0,0E0],"parents":[2147483647,0,0,1,1,2,2,4,4,5,5,6,6,7,7,8,8,10,10,11,11,12,12,13,13,14,14,17,17,18,18,19,19,20,20],"right_children":[2,4,6,-1,8,10,12,14,16,-1,18,20,22,24,26,-1,-1,28,30,32,34,-1,-1,-1,-1,-1,-1,-1,-1,-1,-1,-1,-1,-1,-1],"split_conditions":[-7.192829E-2,-2.203812E-2,5.8860056E-2,5.394878E-2,-1.0016214E-2,-1.091177E-1,-4.353597E-2,5.5454407E-2,1.1413221E-1,3.9677527E-2,2.4151446E-2,3.6625415E-3,-4.0679496E-2,9.149046E-2,-1.0221507E-2,-5.1697936E-2,2.7831757E-2,2.0600505E-2,9.429476E-2,-3.82745E-2,6.017764E-2,-1.1073657E-2,-5.3869594E-2,5.6544505E-3,4.8266944E-2,3.383268E-2,-3.4904335E-2,3.9734915E-2,-2.6808163E-2,-5.412949E-2,-5.146229E-3,4.8880264E-2,4.3538883E-3,8.434898E-3,-3.852155E-2],"split_indices":[15,5,10,0,0,0,4,5,10,0,12,0,0,14,12,0,0,10,31,15,12,0,0,0,0,0,0,0,0,0,0,0,0,0,0],"split_type":[0,0,0,0,0,0,0,0,0,0,0,0,0,0,0,0,0,0,0,0,0,0,0,0,0,0,0,0,0,0,0,0,0,0,0],"sum_hessian":[1.0602642E2,3.252905E1,7.3497375E1,1.6594131E1,1.59349165E1,2.553532E1,4.796205E1,1.1144247E1,4.7906694E0,1.4636997E0,2.407162E1,4.1747227E1,6.214824E0,7.8942146E0,3.2500327E0,3.0180326E0,1.772637E0,2.7036176E0,2.1368002E1,2.052628E1,2.122095E1,1.0598587E0,5.1549654E0,1.490098E0,6.4041166E0,1.3062563E0,1.9437762E0,1.6227669E0,1.0808507E0,2.0031288E1,1.336715E0,1.0099416E1,1.0426864E1,1.2264258E1,8.95669E0],"tree_param":{"num_deleted":"0","num_feature":"32","num_nodes":"35","size_leaf_vector":"1"}},{"base_weights":[2.0482356E-2,4.4429532E-1,-4.052983E-1,7.757997E-1,-7.9944834E-2,4.968186E-1,-5.3055555E-1,2.912213E-1,9.871926E-1,2.6345977E-1,-7.483133E-1,-2.9148439E-2,8.5616547E-1,-8.694271E-1,-7.626084E-2,7.02507E-1,-4.595202E-1,1.1056859E-2,5.2078653E-2,-5.199923E-1,7.401917E-1,-9.385476E-1,7.842761E-3,4.8559725E-2,7.716277E-3,-1.0038089E0,1.16721906E-1,-3.6554083E-1,8.784502E-1,-2.5751287E-2,4.808269E-2,-4.8681885E-2,3.1654697E-2,1.0167691E-2,-4.7107138E-2,-1.7390981E-2,4.9757183E-2,-8.551692E-3,-5.305962E-2,-9.415689E-3,-5.263051E-2,4.5128364E-2,-3.227973E-2,2.9651958E-2,-3.3867806E-2,4.203288E-3,5.209009E-2],"categories":[],"categories_nodes":[],"categories_segments":[],"categories_sizes":[],"default_left":[0,0,0,0,0,0,0,0,0,0,0,0,0,0,0,0,0,0,0,0,0,0,0,0,0,0,0,0,0,0,0,0,0,0,0,0,0,0,0,0,0,0,0,0,0,0,0],"id":32,"left_children":[1,3,5,7,9,11,13,15,17,19,21,-1,23,25,27,29,31,-1,-1,33,35,37,-1,-1,-1,39,41,43,45,-1,-1,-1,-1,-1,-1,-1,-1,-1,-1,-1,-1,-1,-1,-1,-1,-1,-1],"loss_changes":[1.993754E1,9.680909E0,6.4943094E0,3.195404E0,5.3264456E0,3.3080459E0,7.461972E0,3.9495282E0,7.3843384E-1,6.174987E0,1.4981551E0,0E0,3.2132435E-1,3.8161812E0,6.3939514E0,3.0143535E0,3.2912626E0,0E0,0E0,2.1617703E0,3.1340227E0,4.4223166E-1,0E0,0E0,0E0,7.835541E-1,3.1247113E0,5.6568503E0,6.140752E-1,0E0,0E0,0E0,0E0,0E0,0E0,0E0,0E0,0E0,0E0,0E0,0E0,0E0,0E0,0E0,0E0,0E0,0E0],"parents":[2147483647,0,0,1,1,2,2,3,3,4,4,5,5,6,6,7,7,8,8,9,9,10,10,12,12,13,13,14,14,15,15,16,16,19,19,20,20,21,21,25,25,26,26,27,27,28,28],"right_children":[2,4,6,8,10,12,14,16,18,20,22,-1,24,26,28,30,32,-1,-1,34,36,38,-1,-1,-1,40,42,44,46,-1,-1,-1,-1,-1,-1,-1,-1,-1,-1,-1,-1,-1,-1,-1,-1,-1,-1],"split_conditions":[-4.9749244E-2,-1.1112069E-1,-1.0737432E-1,7.637072E-2,8.076899E-3,9.621174E-2,